digraph Tree {
node [shape=box, style="rounded", color="black", fontname="helvetica"] ;
edge [fontname="helvetica"] ;
0 [label="scriptBodyRatio <= -0.1\ngini = 0.5\nsamples = 6550\nvalue = [5122, 5165]"] ;
1 [label="numLinks <= -0.3\ngini = 0.3\nsamples = 2780\nvalue = [784, 3500]"] ;
0 -> 1 [labeldistance=2.5, labelangle=45, headlabel="True"] ;
2 [label="months_since_creation <= 0.3\ngini = 0.3\nsamples = 2667\nvalue = [664, 3435]"] ;
1 -> 2 ;
3 [label="open_page_rank <= 0.0\ngini = 0.2\nsamples = 2126\nvalue = [348, 2895]"] ;
2 -> 3 ;
4 [label="num_digits <= -0.5\ngini = 0.1\nsamples = 1894\nvalue = [126, 2774]"] ;
3 -> 4 ;
5 [label="num_www <= 0.1\ngini = 0.3\nsamples = 215\nvalue = [61, 267]"] ;
4 -> 5 ;
6 [label="num_- <= -0.2\ngini = 0.1\nsamples = 161\nvalue = [9, 237]"] ;
5 -> 6 ;
7 [label="contains_port <= 10.5\ngini = 0.1\nsamples = 130\nvalue = [8, 195]"] ;
6 -> 7 ;
8 [label="hostname_2length_ratio <= 0.5\ngini = 0.1\nsamples = 128\nvalue = [6, 195]"] ;
7 -> 8 ;
9 [label="num_/ <= -0.4\ngini = 0.1\nsamples = 56\nvalue = [5, 81]"] ;
8 -> 9 ;
10 [label="open_page_rank <= -0.4\ngini = 0.2\nsamples = 34\nvalue = [5, 48]"] ;
9 -> 10 ;
11 [label="specialCharacters <= -0.3\ngini = 0.1\nsamples = 29\nvalue = [2, 43]"] ;
10 -> 11 ;
12 [label="is_https <= 0.2\ngini = 0.1\nsamples = 24\nvalue = [2, 35]"] ;
11 -> 12 ;
13 [label="sus_extension_type <= 1.9\ngini = 0.1\nsamples = 15\nvalue = [2, 24]"] ;
12 -> 13 ;
14 [label="num_digits <= -0.8\ngini = 0.2\nsamples = 12\nvalue = [2, 19]"] ;
13 -> 14 ;
15 [label="gini = 0.0\nsamples = 1\nvalue = [2, 0]"] ;
14 -> 15 ;
16 [label="gini = 0.0\nsamples = 11\nvalue = [0, 19]"] ;
14 -> 16 ;
17 [label="gini = 0.0\nsamples = 3\nvalue = [0, 5]"] ;
13 -> 17 ;
18 [label="gini = 0.0\nsamples = 9\nvalue = [0, 11]"] ;
12 -> 18 ;
19 [label="gini = 0.0\nsamples = 5\nvalue = [0, 8]"] ;
11 -> 19 ;
20 [label="months_since_creation <= -1.1\ngini = 0.5\nsamples = 5\nvalue = [3, 5]"] ;
10 -> 20 ;
21 [label="url_entropy <= -1.9\ngini = 0.4\nsamples = 3\nvalue = [3, 1]"] ;
20 -> 21 ;
22 [label="gini = 0.0\nsamples = 1\nvalue = [0, 1]"] ;
21 -> 22 ;
23 [label="gini = 0.0\nsamples = 2\nvalue = [3, 0]"] ;
21 -> 23 ;
24 [label="gini = 0.0\nsamples = 2\nvalue = [0, 4]"] ;
20 -> 24 ;
25 [label="gini = 0.0\nsamples = 22\nvalue = [0, 33]"] ;
9 -> 25 ;
26 [label="numImages <= -0.2\ngini = 0.0\nsamples = 72\nvalue = [1, 114]"] ;
8 -> 26 ;
27 [label="gini = 0.0\nsamples = 71\nvalue = [0, 114]"] ;
26 -> 27 ;
28 [label="gini = 0.0\nsamples = 1\nvalue = [1, 0]"] ;
26 -> 28 ;
29 [label="gini = 0.0\nsamples = 2\nvalue = [2, 0]"] ;
7 -> 29 ;
30 [label="is_https <= 0.2\ngini = 0.0\nsamples = 31\nvalue = [1, 42]"] ;
6 -> 30 ;
31 [label="url_entropy <= -1.0\ngini = 0.1\nsamples = 22\nvalue = [1, 30]"] ;
30 -> 31 ;
32 [label="months_since_creation <= -1.1\ngini = 0.5\nsamples = 2\nvalue = [1, 1]"] ;
31 -> 32 ;
33 [label="gini = 0.0\nsamples = 1\nvalue = [1, 0]"] ;
32 -> 33 ;
34 [label="gini = 0.0\nsamples = 1\nvalue = [0, 1]"] ;
32 -> 34 ;
35 [label="gini = 0.0\nsamples = 20\nvalue = [0, 29]"] ;
31 -> 35 ;
36 [label="gini = 0.0\nsamples = 9\nvalue = [0, 12]"] ;
30 -> 36 ;
37 [label="url_entropy <= -0.4\ngini = 0.5\nsamples = 54\nvalue = [52, 30]"] ;
5 -> 37 ;
38 [label="body_length <= -0.3\ngini = 0.5\nsamples = 25\nvalue = [19, 20]"] ;
37 -> 38 ;
39 [label="open_page_rank <= -0.4\ngini = 0.5\nsamples = 24\nvalue = [19, 18]"] ;
38 -> 39 ;
40 [label="num_digits <= -0.7\ngini = 0.3\nsamples = 15\nvalue = [4, 17]"] ;
39 -> 40 ;
41 [label="num_/ <= -1.0\ngini = 0.5\nsamples = 2\nvalue = [2, 2]"] ;
40 -> 41 ;
42 [label="gini = 0.0\nsamples = 1\nvalue = [0, 2]"] ;
41 -> 42 ;
43 [label="gini = 0.0\nsamples = 1\nvalue = [2, 0]"] ;
41 -> 43 ;
44 [label="body_length <= -0.4\ngini = 0.2\nsamples = 13\nvalue = [2, 15]"] ;
40 -> 44 ;
45 [label="url_entropy <= -1.0\ngini = 0.2\nsamples = 12\nvalue = [2, 13]"] ;
44 -> 45 ;
46 [label="months_since_creation <= -0.9\ngini = 0.5\nsamples = 2\nvalue = [1, 1]"] ;
45 -> 46 ;
47 [label="gini = 0.0\nsamples = 1\nvalue = [0, 1]"] ;
46 -> 47 ;
48 [label="gini = 0.0\nsamples = 1\nvalue = [1, 0]"] ;
46 -> 48 ;
49 [label="open_page_rank <= -0.8\ngini = 0.1\nsamples = 10\nvalue = [1, 12]"] ;
45 -> 49 ;
50 [label="gini = 0.0\nsamples = 7\nvalue = [0, 10]"] ;
49 -> 50 ;
51 [label="num_digits <= -0.7\ngini = 0.4\nsamples = 3\nvalue = [1, 2]"] ;
49 -> 51 ;
52 [label="gini = 0.0\nsamples = 1\nvalue = [0, 1]"] ;
51 -> 52 ;
53 [label="specialCharacters <= -0.3\ngini = 0.5\nsamples = 2\nvalue = [1, 1]"] ;
51 -> 53 ;
54 [label="gini = 0.0\nsamples = 1\nvalue = [1, 0]"] ;
53 -> 54 ;
55 [label="gini = 0.0\nsamples = 1\nvalue = [0, 1]"] ;
53 -> 55 ;
56 [label="gini = 0.0\nsamples = 1\nvalue = [0, 2]"] ;
44 -> 56 ;
57 [label="host_length <= -0.5\ngini = 0.1\nsamples = 9\nvalue = [15, 1]"] ;
39 -> 57 ;
58 [label="specialCharacters <= -0.3\ngini = 0.2\nsamples = 4\nvalue = [9, 1]"] ;
57 -> 58 ;
59 [label="num_. <= 0.0\ngini = 0.4\nsamples = 2\nvalue = [2, 1]"] ;
58 -> 59 ;
60 [label="gini = 0.0\nsamples = 1\nvalue = [0, 1]"] ;
59 -> 60 ;
61 [label="gini = 0.0\nsamples = 1\nvalue = [2, 0]"] ;
59 -> 61 ;
62 [label="gini = 0.0\nsamples = 2\nvalue = [7, 0]"] ;
58 -> 62 ;
63 [label="gini = 0.0\nsamples = 5\nvalue = [6, 0]"] ;
57 -> 63 ;
64 [label="gini = 0.0\nsamples = 1\nvalue = [0, 2]"] ;
38 -> 64 ;
65 [label="num_redirects <= 0.1\ngini = 0.4\nsamples = 29\nvalue = [33, 10]"] ;
37 -> 65 ;
66 [label="is_https <= 0.2\ngini = 0.4\nsamples = 27\nvalue = [29, 10]"] ;
65 -> 66 ;
67 [label="specialCharacters <= -0.3\ngini = 0.5\nsamples = 18\nvalue = [14, 10]"] ;
66 -> 67 ;
68 [label="months_since_creation <= -0.9\ngini = 0.4\nsamples = 14\nvalue = [12, 6]"] ;
67 -> 68 ;
69 [label="open_page_rank <= -0.6\ngini = 0.5\nsamples = 7\nvalue = [5, 5]"] ;
68 -> 69 ;
70 [label="url_length <= -0.6\ngini = 0.3\nsamples = 4\nvalue = [1, 5]"] ;
69 -> 70 ;
71 [label="gini = 0.0\nsamples = 3\nvalue = [0, 5]"] ;
70 -> 71 ;
72 [label="gini = 0.0\nsamples = 1\nvalue = [1, 0]"] ;
70 -> 72 ;
73 [label="gini = 0.0\nsamples = 3\nvalue = [4, 0]"] ;
69 -> 73 ;
74 [label="hostname_2length_ratio <= 1.0\ngini = 0.2\nsamples = 7\nvalue = [7, 1]"] ;
68 -> 74 ;
75 [label="gini = 0.0\nsamples = 1\nvalue = [0, 1]"] ;
74 -> 75 ;
76 [label="gini = 0.0\nsamples = 6\nvalue = [7, 0]"] ;
74 -> 76 ;
77 [label="body_length <= -0.3\ngini = 0.4\nsamples = 4\nvalue = [2, 4]"] ;
67 -> 77 ;
78 [label="months_since_creation <= -0.5\ngini = 0.3\nsamples = 3\nvalue = [1, 4]"] ;
77 -> 78 ;
79 [label="gini = 0.0\nsamples = 1\nvalue = [1, 0]"] ;
78 -> 79 ;
80 [label="gini = 0.0\nsamples = 2\nvalue = [0, 4]"] ;
78 -> 80 ;
81 [label="gini = 0.0\nsamples = 1\nvalue = [1, 0]"] ;
77 -> 81 ;
82 [label="gini = 0.0\nsamples = 9\nvalue = [15, 0]"] ;
66 -> 82 ;
83 [label="gini = 0.0\nsamples = 2\nvalue = [4, 0]"] ;
65 -> 83 ;
84 [label="host_length <= -1.2\ngini = 0.0\nsamples = 1679\nvalue = [65, 2507]"] ;
4 -> 84 ;
85 [label="num_& <= 2.8\ngini = 0.5\nsamples = 4\nvalue = [3, 3]"] ;
84 -> 85 ;
86 [label="num_= <= 0.7\ngini = 0.4\nsamples = 3\nvalue = [3, 1]"] ;
85 -> 86 ;
87 [label="gini = 0.0\nsamples = 2\nvalue = [3, 0]"] ;
86 -> 87 ;
88 [label="gini = 0.0\nsamples = 1\nvalue = [0, 1]"] ;
86 -> 88 ;
89 [label="gini = 0.0\nsamples = 1\nvalue = [0, 2]"] ;
85 -> 89 ;
90 [label="num_? <= 1.0\ngini = 0.0\nsamples = 1675\nvalue = [62, 2504]"] ;
84 -> 90 ;
91 [label="open_page_rank <= -0.4\ngini = 0.1\nsamples = 1195\nvalue = [58, 1748]"] ;
90 -> 91 ;
92 [label="num_digits <= -0.1\ngini = 0.0\nsamples = 1064\nvalue = [27, 1586]"] ;
91 -> 92 ;
93 [label="num_ <= 1.1\ngini = 0.1\nsamples = 511\nvalue = [24, 740]"] ;
92 -> 93 ;
94 [label="phish_hints <= 0.3\ngini = 0.1\nsamples = 508\nvalue = [21, 737]"] ;
93 -> 94 ;
95 [label="num_www <= 0.1\ngini = 0.1\nsamples = 393\nvalue = [21, 572]"] ;
94 -> 95 ;
96 [label="url_entropy <= 1.4\ngini = 0.0\nsamples = 317\nvalue = [6, 466]"] ;
95 -> 96 ;
97 [label="host_length <= -0.5\ngini = 0.0\nsamples = 260\nvalue = [3, 390]"] ;
96 -> 97 ;
98 [label="url_entropy <= -0.0\ngini = 0.0\nsamples = 58\nvalue = [2, 82]"] ;
97 -> 98 ;
99 [label="gini = 0.0\nsamples = 48\nvalue = [0, 70]"] ;
98 -> 99 ;
100 [label="months_since_creation <= -1.1\ngini = 0.2\nsamples = 10\nvalue = [2, 12]"] ;
98 -> 100 ;
101 [label="body_length <= -0.3\ngini = 0.4\nsamples = 3\nvalue = [2, 4]"] ;
100 -> 101 ;
102 [label="gini = 0.0\nsamples = 2\nvalue = [0, 4]"] ;
101 -> 102 ;
103 [label="gini = 0.0\nsamples = 1\nvalue = [2, 0]"] ;
101 -> 103 ;
104 [label="gini = 0.0\nsamples = 7\nvalue = [0, 8]"] ;
100 -> 104 ;
105 [label="url_length <= -0.3\ngini = 0.0\nsamples = 202\nvalue = [1, 308]"] ;
97 -> 105 ;
106 [label="gini = 0.0\nsamples = 141\nvalue = [0, 217]"] ;
105 -> 106 ;
107 [label="months_since_creation <= -1.1\ngini = 0.0\nsamples = 61\nvalue = [1, 91]"] ;
105 -> 107 ;
108 [label="gini = 0.0\nsamples = 33\nvalue = [0, 50]"] ;
107 -> 108 ;
109 [label="num_digits <= -0.3\ngini = 0.0\nsamples = 28\nvalue = [1, 41]"] ;
107 -> 109 ;
110 [label="specialCharacters <= -0.3\ngini = 0.2\nsamples = 8\nvalue = [1, 9]"] ;
109 -> 110 ;
111 [label="body_length <= -0.3\ngini = 0.3\nsamples = 5\nvalue = [1, 5]"] ;
110 -> 111 ;
112 [label="gini = 0.0\nsamples = 4\nvalue = [0, 5]"] ;
111 -> 112 ;
113 [label="gini = 0.0\nsamples = 1\nvalue = [1, 0]"] ;
111 -> 113 ;
114 [label="gini = 0.0\nsamples = 3\nvalue = [0, 4]"] ;
110 -> 114 ;
115 [label="gini = 0.0\nsamples = 20\nvalue = [0, 32]"] ;
109 -> 115 ;
116 [label="script_length <= -0.2\ngini = 0.1\nsamples = 57\nvalue = [3, 76]"] ;
96 -> 116 ;
117 [label="months_since_creation <= -0.9\ngini = 0.0\nsamples = 55\nvalue = [1, 75]"] ;
116 -> 117 ;
118 [label="gini = 0.0\nsamples = 32\nvalue = [0, 44]"] ;
117 -> 118 ;
119 [label="specialCharacters <= -0.3\ngini = 0.1\nsamples = 23\nvalue = [1, 31]"] ;
117 -> 119 ;
120 [label="host_length <= 0.8\ngini = 0.1\nsamples = 16\nvalue = [1, 22]"] ;
119 -> 120 ;
121 [label="num_- <= -0.2\ngini = 0.3\nsamples = 3\nvalue = [1, 4]"] ;
120 -> 121 ;
122 [label="gini = 0.0\nsamples = 1\nvalue = [1, 0]"] ;
121 -> 122 ;
123 [label="gini = 0.0\nsamples = 2\nvalue = [0, 4]"] ;
121 -> 123 ;
124 [label="gini = 0.0\nsamples = 13\nvalue = [0, 18]"] ;
120 -> 124 ;
125 [label="gini = 0.0\nsamples = 7\nvalue = [0, 9]"] ;
119 -> 125 ;
126 [label="url_length <= -0.3\ngini = 0.4\nsamples = 2\nvalue = [2, 1]"] ;
116 -> 126 ;
127 [label="gini = 0.0\nsamples = 1\nvalue = [0, 1]"] ;
126 -> 127 ;
128 [label="gini = 0.0\nsamples = 1\nvalue = [2, 0]"] ;
126 -> 128 ;
129 [label="hostname_2length_ratio <= -0.6\ngini = 0.2\nsamples = 76\nvalue = [15, 106]"] ;
95 -> 129 ;
130 [label="gini = 0.0\nsamples = 1\nvalue = [2, 0]"] ;
129 -> 130 ;
131 [label="host_length <= 0.1\ngini = 0.2\nsamples = 75\nvalue = [13, 106]"] ;
129 -> 131 ;
132 [label="months_since_creation <= 0.0\ngini = 0.1\nsamples = 33\nvalue = [2, 49]"] ;
131 -> 132 ;
133 [label="gini = 0.0\nsamples = 30\nvalue = [0, 45]"] ;
132 -> 133 ;
134 [label="url_length <= -0.3\ngini = 0.4\nsamples = 3\nvalue = [2, 4]"] ;
132 -> 134 ;
135 [label="gini = 0.0\nsamples = 1\nvalue = [0, 3]"] ;
134 -> 135 ;
136 [label="specialCharacters <= -0.3\ngini = 0.4\nsamples = 2\nvalue = [2, 1]"] ;
134 -> 136 ;
137 [label="gini = 0.0\nsamples = 1\nvalue = [0, 1]"] ;
136 -> 137 ;
138 [label="gini = 0.0\nsamples = 1\nvalue = [2, 0]"] ;
136 -> 138 ;
139 [label="months_since_creation <= -1.1\ngini = 0.3\nsamples = 42\nvalue = [11, 57]"] ;
131 -> 139 ;
140 [label="open_page_rank <= -0.8\ngini = 0.0\nsamples = 25\nvalue = [1, 38]"] ;
139 -> 140 ;
141 [label="gini = 0.0\nsamples = 21\nvalue = [0, 35]"] ;
140 -> 141 ;
142 [label="num_digits <= -0.5\ngini = 0.4\nsamples = 4\nvalue = [1, 3]"] ;
140 -> 142 ;
143 [label="gini = 0.0\nsamples = 1\nvalue = [1, 0]"] ;
142 -> 143 ;
144 [label="gini = 0.0\nsamples = 3\nvalue = [0, 3]"] ;
142 -> 144 ;
145 [label="num_. <= 0.0\ngini = 0.5\nsamples = 17\nvalue = [10, 19]"] ;
139 -> 145 ;
146 [label="num_digits <= -0.4\ngini = 0.5\nsamples = 15\nvalue = [10, 15]"] ;
145 -> 146 ;
147 [label="url_entropy <= 0.9\ngini = 0.3\nsamples = 6\nvalue = [8, 2]"] ;
146 -> 147 ;
148 [label="gini = 0.0\nsamples = 5\nvalue = [8, 0]"] ;
147 -> 148 ;
149 [label="gini = 0.0\nsamples = 1\nvalue = [0, 2]"] ;
147 -> 149 ;
150 [label="is_https <= 0.2\ngini = 0.2\nsamples = 9\nvalue = [2, 13]"] ;
146 -> 150 ;
151 [label="months_since_creation <= -1.1\ngini = 0.3\nsamples = 7\nvalue = [2, 10]"] ;
150 -> 151 ;
152 [label="gini = 0.0\nsamples = 1\nvalue = [1, 0]"] ;
151 -> 152 ;
153 [label="months_since_expired <= 5.8\ngini = 0.2\nsamples = 6\nvalue = [1, 10]"] ;
151 -> 153 ;
154 [label="url_length <= -0.3\ngini = 0.2\nsamples = 5\nvalue = [1, 9]"] ;
153 -> 154 ;
155 [label="gini = 0.0\nsamples = 2\nvalue = [0, 5]"] ;
154 -> 155 ;
156 [label="script_length <= -0.2\ngini = 0.3\nsamples = 3\nvalue = [1, 4]"] ;
154 -> 156 ;
157 [label="gini = 0.0\nsamples = 2\nvalue = [0, 4]"] ;
156 -> 157 ;
158 [label="gini = 0.0\nsamples = 1\nvalue = [1, 0]"] ;
156 -> 158 ;
159 [label="gini = 0.0\nsamples = 1\nvalue = [0, 1]"] ;
153 -> 159 ;
160 [label="gini = 0.0\nsamples = 2\nvalue = [0, 3]"] ;
150 -> 160 ;
161 [label="gini = 0.0\nsamples = 2\nvalue = [0, 4]"] ;
145 -> 161 ;
162 [label="gini = 0.0\nsamples = 115\nvalue = [0, 165]"] ;
94 -> 162 ;
163 [label="url_length <= -0.2\ngini = 0.5\nsamples = 3\nvalue = [3, 3]"] ;
93 -> 163 ;
164 [label="gini = 0.0\nsamples = 2\nvalue = [0, 3]"] ;
163 -> 164 ;
165 [label="gini = 0.0\nsamples = 1\nvalue = [3, 0]"] ;
163 -> 165 ;
166 [label="host_length <= -0.6\ngini = 0.0\nsamples = 553\nvalue = [3, 846]"] ;
92 -> 166 ;
167 [label="num_- <= 1.9\ngini = 0.1\nsamples = 70\nvalue = [3, 98]"] ;
166 -> 167 ;
168 [label="gini = 0.0\nsamples = 61\nvalue = [0, 86]"] ;
167 -> 168 ;
169 [label="url_length <= 1.0\ngini = 0.3\nsamples = 9\nvalue = [3, 12]"] ;
167 -> 169 ;
170 [label="gini = 0.0\nsamples = 2\nvalue = [3, 0]"] ;
169 -> 170 ;
171 [label="gini = 0.0\nsamples = 7\nvalue = [0, 12]"] ;
169 -> 171 ;
172 [label="gini = 0.0\nsamples = 483\nvalue = [0, 748]"] ;
166 -> 172 ;
173 [label="url_length <= -0.5\ngini = 0.3\nsamples = 131\nvalue = [31, 162]"] ;
91 -> 173 ;
174 [label="num_- <= -0.2\ngini = 0.5\nsamples = 7\nvalue = [7, 4]"] ;
173 -> 174 ;
175 [label="num_/ <= -0.4\ngini = 0.5\nsamples = 6\nvalue = [4, 4]"] ;
174 -> 175 ;
176 [label="num_com <= -0.4\ngini = 0.3\nsamples = 4\nvalue = [4, 1]"] ;
175 -> 176 ;
177 [label="gini = 0.0\nsamples = 1\nvalue = [0, 1]"] ;
176 -> 177 ;
178 [label="gini = 0.0\nsamples = 3\nvalue = [4, 0]"] ;
176 -> 178 ;
179 [label="gini = 0.0\nsamples = 2\nvalue = [0, 3]"] ;
175 -> 179 ;
180 [label="gini = 0.0\nsamples = 1\nvalue = [3, 0]"] ;
174 -> 180 ;
181 [label="num_digits <= 0.3\ngini = 0.2\nsamples = 124\nvalue = [24, 158]"] ;
173 -> 181 ;
182 [label="num_/ <= 0.1\ngini = 0.3\nsamples = 90\nvalue = [22, 109]"] ;
181 -> 182 ;
183 [label="url_length <= -0.0\ngini = 0.5\nsamples = 37\nvalue = [21, 33]"] ;
182 -> 183 ;
184 [label="num_ <= 0.2\ngini = 0.4\nsamples = 31\nvalue = [11, 33]"] ;
183 -> 184 ;
185 [label="specialCharacters <= -0.3\ngini = 0.3\nsamples = 28\nvalue = [7, 33]"] ;
184 -> 185 ;
186 [label="sus_extension_type <= 1.9\ngini = 0.2\nsamples = 26\nvalue = [5, 31]"] ;
185 -> 186 ;
187 [label="host_length <= -0.7\ngini = 0.2\nsamples = 17\nvalue = [2, 21]"] ;
186 -> 187 ;
188 [label="url_length <= -0.4\ngini = 0.5\nsamples = 2\nvalue = [1, 1]"] ;
187 -> 188 ;
189 [label="gini = 0.0\nsamples = 1\nvalue = [0, 1]"] ;
188 -> 189 ;
190 [label="gini = 0.0\nsamples = 1\nvalue = [1, 0]"] ;
188 -> 190 ;
191 [label="months_since_creation <= -1.0\ngini = 0.1\nsamples = 15\nvalue = [1, 20]"] ;
187 -> 191 ;
192 [label="months_since_creation <= -1.1\ngini = 0.2\nsamples = 7\nvalue = [1, 8]"] ;
191 -> 192 ;
193 [label="gini = 0.0\nsamples = 6\nvalue = [0, 8]"] ;
192 -> 193 ;
194 [label="gini = 0.0\nsamples = 1\nvalue = [1, 0]"] ;
192 -> 194 ;
195 [label="gini = 0.0\nsamples = 8\nvalue = [0, 12]"] ;
191 -> 195 ;
196 [label="months_since_creation <= -0.0\ngini = 0.4\nsamples = 9\nvalue = [3, 10]"] ;
186 -> 196 ;
197 [label="gini = 0.0\nsamples = 6\nvalue = [0, 9]"] ;
196 -> 197 ;
198 [label="num_digits <= -0.5\ngini = 0.4\nsamples = 3\nvalue = [3, 1]"] ;
196 -> 198 ;
199 [label="gini = 0.0\nsamples = 1\nvalue = [0, 1]"] ;
198 -> 199 ;
200 [label="gini = 0.0\nsamples = 2\nvalue = [3, 0]"] ;
198 -> 200 ;
201 [label="script_length <= -0.2\ngini = 0.5\nsamples = 2\nvalue = [2, 2]"] ;
185 -> 201 ;
202 [label="gini = 0.0\nsamples = 1\nvalue = [2, 0]"] ;
201 -> 202 ;
203 [label="gini = 0.0\nsamples = 1\nvalue = [0, 2]"] ;
201 -> 203 ;
204 [label="gini = 0.0\nsamples = 3\nvalue = [4, 0]"] ;
184 -> 204 ;
205 [label="gini = 0.0\nsamples = 6\nvalue = [10, 0]"] ;
183 -> 205 ;
206 [label="num_www <= 0.1\ngini = 0.0\nsamples = 53\nvalue = [1, 76]"] ;
182 -> 206 ;
207 [label="gini = 0.0\nsamples = 36\nvalue = [0, 53]"] ;
206 -> 207 ;
208 [label="url_entropy <= 0.3\ngini = 0.1\nsamples = 17\nvalue = [1, 23]"] ;
206 -> 208 ;
209 [label="gini = 0.0\nsamples = 15\nvalue = [0, 21]"] ;
208 -> 209 ;
210 [label="host_length <= -0.2\ngini = 0.4\nsamples = 2\nvalue = [1, 2]"] ;
208 -> 210 ;
211 [label="gini = 0.0\nsamples = 1\nvalue = [1, 0]"] ;
210 -> 211 ;
212 [label="gini = 0.0\nsamples = 1\nvalue = [0, 2]"] ;
210 -> 212 ;
213 [label="url_length <= 1.1\ngini = 0.1\nsamples = 34\nvalue = [2, 49]"] ;
181 -> 213 ;
214 [label="gini = 0.0\nsamples = 27\nvalue = [0, 43]"] ;
213 -> 214 ;
215 [label="url_entropy <= 1.1\ngini = 0.4\nsamples = 7\nvalue = [2, 6]"] ;
213 -> 215 ;
216 [label="gini = 0.0\nsamples = 6\nvalue = [0, 6]"] ;
215 -> 216 ;
217 [label="gini = 0.0\nsamples = 1\nvalue = [2, 0]"] ;
215 -> 217 ;
218 [label="specialCharacters <= -0.3\ngini = 0.0\nsamples = 480\nvalue = [4, 756]"] ;
90 -> 218 ;
219 [label="open_page_rank <= -0.4\ngini = 0.0\nsamples = 472\nvalue = [1, 746]"] ;
218 -> 219 ;
220 [label="gini = 0.0\nsamples = 427\nvalue = [0, 678]"] ;
219 -> 220 ;
221 [label="hostname_2length_ratio <= -0.2\ngini = 0.0\nsamples = 45\nvalue = [1, 68]"] ;
219 -> 221 ;
222 [label="gini = 0.0\nsamples = 43\nvalue = [0, 66]"] ;
221 -> 222 ;
223 [label="num_www <= 0.1\ngini = 0.4\nsamples = 2\nvalue = [1, 2]"] ;
221 -> 223 ;
224 [label="gini = 0.0\nsamples = 1\nvalue = [0, 2]"] ;
223 -> 224 ;
225 [label="gini = 0.0\nsamples = 1\nvalue = [1, 0]"] ;
223 -> 225 ;
226 [label="url_length <= -0.0\ngini = 0.4\nsamples = 8\nvalue = [3, 10]"] ;
218 -> 226 ;
227 [label="gini = 0.0\nsamples = 1\nvalue = [3, 0]"] ;
226 -> 227 ;
228 [label="gini = 0.0\nsamples = 7\nvalue = [0, 10]"] ;
226 -> 228 ;
229 [label="num_digits <= 1.1\ngini = 0.5\nsamples = 232\nvalue = [222, 121]"] ;
3 -> 229 ;
230 [label="sus_extension_type <= 1.9\ngini = 0.4\nsamples = 219\nvalue = [220, 105]"] ;
229 -> 230 ;
231 [label="num_? <= 1.0\ngini = 0.4\nsamples = 213\nvalue = [220, 96]"] ;
230 -> 231 ;
232 [label="host_length <= -1.2\ngini = 0.4\nsamples = 189\nvalue = [202, 74]"] ;
231 -> 232 ;
233 [label="gini = 0.0\nsamples = 14\nvalue = [0, 20]"] ;
232 -> 233 ;
234 [label="num_- <= 0.7\ngini = 0.3\nsamples = 175\nvalue = [202, 54]"] ;
232 -> 234 ;
235 [label="tld_in_path <= 0.9\ngini = 0.4\nsamples = 154\nvalue = [166, 54]"] ;
234 -> 235 ;
236 [label="num_- <= -0.2\ngini = 0.2\nsamples = 118\nvalue = [150, 21]"] ;
235 -> 236 ;
237 [label="host_length <= -1.0\ngini = 0.2\nsamples = 85\nvalue = [101, 17]"] ;
236 -> 237 ;
238 [label="is_https <= 0.2\ngini = 0.5\nsamples = 9\nvalue = [9, 6]"] ;
237 -> 238 ;
239 [label="url_length <= -0.8\ngini = 0.4\nsamples = 7\nvalue = [9, 3]"] ;
238 -> 239 ;
240 [label="gini = 0.0\nsamples = 2\nvalue = [4, 0]"] ;
239 -> 240 ;
241 [label="hostname_2length_ratio <= -1.1\ngini = 0.5\nsamples = 5\nvalue = [5, 3]"] ;
239 -> 241 ;
242 [label="gini = 0.0\nsamples = 2\nvalue = [4, 0]"] ;
241 -> 242 ;
243 [label="months_since_creation <= -0.5\ngini = 0.4\nsamples = 3\nvalue = [1, 3]"] ;
241 -> 243 ;
244 [label="gini = 0.0\nsamples = 1\nvalue = [0, 2]"] ;
243 -> 244 ;
245 [label="script_length <= -0.2\ngini = 0.5\nsamples = 2\nvalue = [1, 1]"] ;
243 -> 245 ;
246 [label="gini = 0.0\nsamples = 1\nvalue = [0, 1]"] ;
245 -> 246 ;
247 [label="gini = 0.0\nsamples = 1\nvalue = [1, 0]"] ;
245 -> 247 ;
248 [label="gini = 0.0\nsamples = 2\nvalue = [0, 3]"] ;
238 -> 248 ;
249 [label="hostname_2length_ratio <= 0.6\ngini = 0.2\nsamples = 76\nvalue = [92, 11]"] ;
237 -> 249 ;
250 [label="num_. <= 0.0\ngini = 0.4\nsamples = 35\nvalue = [32, 11]"] ;
249 -> 250 ;
251 [label="is_https <= 0.2\ngini = 0.5\nsamples = 15\nvalue = [8, 10]"] ;
250 -> 251 ;
252 [label="num_/ <= 0.4\ngini = 0.4\nsamples = 8\nvalue = [6, 2]"] ;
251 -> 252 ;
253 [label="hostname_2length_ratio <= 0.5\ngini = 0.2\nsamples = 7\nvalue = [6, 1]"] ;
252 -> 253 ;
254 [label="gini = 0.0\nsamples = 6\nvalue = [6, 0]"] ;
253 -> 254 ;
255 [label="gini = 0.0\nsamples = 1\nvalue = [0, 1]"] ;
253 -> 255 ;
256 [label="gini = 0.0\nsamples = 1\nvalue = [0, 1]"] ;
252 -> 256 ;
257 [label="num_. <= -0.7\ngini = 0.3\nsamples = 7\nvalue = [2, 8]"] ;
251 -> 257 ;
258 [label="gini = 0.0\nsamples = 3\nvalue = [0, 3]"] ;
257 -> 258 ;
259 [label="body_length <= -0.3\ngini = 0.4\nsamples = 4\nvalue = [2, 5]"] ;
257 -> 259 ;
260 [label="gini = 0.0\nsamples = 2\nvalue = [2, 0]"] ;
259 -> 260 ;
261 [label="gini = 0.0\nsamples = 2\nvalue = [0, 5]"] ;
259 -> 261 ;
262 [label="is_https <= 0.2\ngini = 0.1\nsamples = 20\nvalue = [24, 1]"] ;
250 -> 262 ;
263 [label="gini = 0.0\nsamples = 12\nvalue = [15, 0]"] ;
262 -> 263 ;
264 [label="num_digits <= 0.1\ngini = 0.2\nsamples = 8\nvalue = [9, 1]"] ;
262 -> 264 ;
265 [label="num_com <= -0.4\ngini = 0.4\nsamples = 3\nvalue = [2, 1]"] ;
264 -> 265 ;
266 [label="gini = 0.0\nsamples = 2\nvalue = [2, 0]"] ;
265 -> 266 ;
267 [label="gini = 0.0\nsamples = 1\nvalue = [0, 1]"] ;
265 -> 267 ;
268 [label="gini = 0.0\nsamples = 5\nvalue = [7, 0]"] ;
264 -> 268 ;
269 [label="gini = 0.0\nsamples = 41\nvalue = [60, 0]"] ;
249 -> 269 ;
270 [label="host_length <= 0.4\ngini = 0.1\nsamples = 33\nvalue = [49, 4]"] ;
236 -> 270 ;
271 [label="num_/ <= 0.7\ngini = 0.1\nsamples = 29\nvalue = [47, 2]"] ;
270 -> 271 ;
272 [label="numLinks <= -0.4\ngini = 0.1\nsamples = 19\nvalue = [32, 2]"] ;
271 -> 272 ;
273 [label="url_entropy <= -0.6\ngini = 0.1\nsamples = 17\nvalue = [31, 1]"] ;
272 -> 273 ;
274 [label="open_page_rank <= 0.8\ngini = 0.2\nsamples = 6\nvalue = [9, 1]"] ;
273 -> 274 ;
275 [label="months_since_creation <= -0.3\ngini = 0.3\nsamples = 4\nvalue = [5, 1]"] ;
274 -> 275 ;
276 [label="gini = 0.0\nsamples = 1\nvalue = [0, 1]"] ;
275 -> 276 ;
277 [label="gini = 0.0\nsamples = 3\nvalue = [5, 0]"] ;
275 -> 277 ;
278 [label="gini = 0.0\nsamples = 2\nvalue = [4, 0]"] ;
274 -> 278 ;
279 [label="gini = 0.0\nsamples = 11\nvalue = [22, 0]"] ;
273 -> 279 ;
280 [label="url_length <= -0.4\ngini = 0.5\nsamples = 2\nvalue = [1, 1]"] ;
272 -> 280 ;
281 [label="gini = 0.0\nsamples = 1\nvalue = [1, 0]"] ;
280 -> 281 ;
282 [label="gini = 0.0\nsamples = 1\nvalue = [0, 1]"] ;
280 -> 282 ;
283 [label="gini = 0.0\nsamples = 10\nvalue = [15, 0]"] ;
271 -> 283 ;
284 [label="url_entropy <= 0.7\ngini = 0.5\nsamples = 4\nvalue = [2, 2]"] ;
270 -> 284 ;
285 [label="gini = 0.0\nsamples = 2\nvalue = [2, 0]"] ;
284 -> 285 ;
286 [label="gini = 0.0\nsamples = 2\nvalue = [0, 2]"] ;
284 -> 286 ;
287 [label="script_length <= -0.2\ngini = 0.4\nsamples = 36\nvalue = [16, 33]"] ;
235 -> 287 ;
288 [label="num_com <= -0.4\ngini = 0.4\nsamples = 35\nvalue = [15, 33]"] ;
287 -> 288 ;
289 [label="months_since_creation <= -0.9\ngini = 0.4\nsamples = 10\nvalue = [9, 3]"] ;
288 -> 289 ;
290 [label="script_length <= -0.2\ngini = 0.2\nsamples = 8\nvalue = [9, 1]"] ;
289 -> 290 ;
291 [label="gini = 0.0\nsamples = 7\nvalue = [9, 0]"] ;
290 -> 291 ;
292 [label="gini = 0.0\nsamples = 1\nvalue = [0, 1]"] ;
290 -> 292 ;
293 [label="gini = 0.0\nsamples = 2\nvalue = [0, 2]"] ;
289 -> 293 ;
294 [label="body_length <= 0.3\ngini = 0.3\nsamples = 25\nvalue = [6, 30]"] ;
288 -> 294 ;
295 [label="numLinks <= -0.4\ngini = 0.2\nsamples = 24\nvalue = [4, 30]"] ;
294 -> 295 ;
296 [label="months_since_creation <= -0.0\ngini = 0.2\nsamples = 21\nvalue = [4, 26]"] ;
295 -> 296 ;
297 [label="gini = 0.0\nsamples = 15\nvalue = [0, 23]"] ;
296 -> 297 ;
298 [label="num_digits <= -0.4\ngini = 0.5\nsamples = 6\nvalue = [4, 3]"] ;
296 -> 298 ;
299 [label="gini = 0.0\nsamples = 1\nvalue = [0, 1]"] ;
298 -> 299 ;
300 [label="host_length <= -0.7\ngini = 0.4\nsamples = 5\nvalue = [4, 2]"] ;
298 -> 300 ;
301 [label="gini = 0.0\nsamples = 2\nvalue = [0, 2]"] ;
300 -> 301 ;
302 [label="gini = 0.0\nsamples = 3\nvalue = [4, 0]"] ;
300 -> 302 ;
303 [label="gini = 0.0\nsamples = 3\nvalue = [0, 4]"] ;
295 -> 303 ;
304 [label="gini = 0.0\nsamples = 1\nvalue = [2, 0]"] ;
294 -> 304 ;
305 [label="gini = 0.0\nsamples = 1\nvalue = [1, 0]"] ;
287 -> 305 ;
306 [label="gini = 0.0\nsamples = 21\nvalue = [36, 0]"] ;
234 -> 306 ;
307 [label="months_since_creation <= -1.2\ngini = 0.5\nsamples = 24\nvalue = [18, 22]"] ;
231 -> 307 ;
308 [label="specialCharacters <= -0.3\ngini = 0.2\nsamples = 12\nvalue = [17, 2]"] ;
307 -> 308 ;
309 [label="num_- <= 0.7\ngini = 0.1\nsamples = 11\nvalue = [17, 1]"] ;
308 -> 309 ;
310 [label="gini = 0.0\nsamples = 9\nvalue = [16, 0]"] ;
309 -> 310 ;
311 [label="num_com <= -0.4\ngini = 0.5\nsamples = 2\nvalue = [1, 1]"] ;
309 -> 311 ;
312 [label="gini = 0.0\nsamples = 1\nvalue = [1, 0]"] ;
311 -> 312 ;
313 [label="gini = 0.0\nsamples = 1\nvalue = [0, 1]"] ;
311 -> 313 ;
314 [label="gini = 0.0\nsamples = 1\nvalue = [0, 1]"] ;
308 -> 314 ;
315 [label="num_. <= 0.0\ngini = 0.1\nsamples = 12\nvalue = [1, 20]"] ;
307 -> 315 ;
316 [label="gini = 0.0\nsamples = 7\nvalue = [0, 13]"] ;
315 -> 316 ;
317 [label="months_since_creation <= -0.1\ngini = 0.2\nsamples = 5\nvalue = [1, 7]"] ;
315 -> 317 ;
318 [label="gini = 0.0\nsamples = 4\nvalue = [0, 7]"] ;
317 -> 318 ;
319 [label="gini = 0.0\nsamples = 1\nvalue = [1, 0]"] ;
317 -> 319 ;
320 [label="gini = 0.0\nsamples = 6\nvalue = [0, 9]"] ;
230 -> 320 ;
321 [label="num_- <= 2.4\ngini = 0.2\nsamples = 13\nvalue = [2, 16]"] ;
229 -> 321 ;
322 [label="gini = 0.0\nsamples = 10\nvalue = [0, 14]"] ;
321 -> 322 ;
323 [label="url_length <= 1.9\ngini = 0.5\nsamples = 3\nvalue = [2, 2]"] ;
321 -> 323 ;
324 [label="gini = 0.0\nsamples = 1\nvalue = [2, 0]"] ;
323 -> 324 ;
325 [label="gini = 0.0\nsamples = 2\nvalue = [0, 2]"] ;
323 -> 325 ;
326 [label="script_length <= -0.2\ngini = 0.5\nsamples = 541\nvalue = [316, 540]"] ;
2 -> 326 ;
327 [label="hostname_2length_ratio <= -1.7\ngini = 0.5\nsamples = 443\nvalue = [310, 372]"] ;
326 -> 327 ;
328 [label="gini = 0.0\nsamples = 15\nvalue = [0, 26]"] ;
327 -> 328 ;
329 [label="specialCharacters <= -0.3\ngini = 0.5\nsamples = 428\nvalue = [310, 346]"] ;
327 -> 329 ;
330 [label="months_since_creation <= 1.4\ngini = 0.5\nsamples = 282\nvalue = [261, 168]"] ;
329 -> 330 ;
331 [label="hostname_2length_ratio <= -0.1\ngini = 0.5\nsamples = 212\nvalue = [175, 146]"] ;
330 -> 331 ;
332 [label="num_/ <= 2.8\ngini = 0.5\nsamples = 133\nvalue = [132, 71]"] ;
331 -> 332 ;
333 [label="url_entropy <= -1.9\ngini = 0.4\nsamples = 129\nvalue = [132, 64]"] ;
332 -> 333 ;
334 [label="gini = 0.0\nsamples = 6\nvalue = [0, 10]"] ;
333 -> 334 ;
335 [label="num_redirects <= 0.1\ngini = 0.4\nsamples = 123\nvalue = [132, 54]"] ;
333 -> 335 ;
336 [label="num_= <= 0.2\ngini = 0.4\nsamples = 107\nvalue = [103, 52]"] ;
335 -> 336 ;
337 [label="host_length <= -0.2\ngini = 0.4\nsamples = 92\nvalue = [99, 38]"] ;
336 -> 337 ;
338 [label="open_page_rank <= 0.0\ngini = 0.5\nsamples = 46\nvalue = [42, 27]"] ;
337 -> 338 ;
339 [label="phish_hints <= 0.3\ngini = 0.3\nsamples = 19\nvalue = [6, 23]"] ;
338 -> 339 ;
340 [label="num_digits <= -0.2\ngini = 0.5\nsamples = 11\nvalue = [6, 10]"] ;
339 -> 340 ;
341 [label="open_page_rank <= -0.6\ngini = 0.2\nsamples = 8\nvalue = [1, 9]"] ;
340 -> 341 ;
342 [label="gini = 0.0\nsamples = 5\nvalue = [0, 6]"] ;
341 -> 342 ;
343 [label="body_length <= -0.4\ngini = 0.4\nsamples = 3\nvalue = [1, 3]"] ;
341 -> 343 ;
344 [label="months_since_creation <= 0.7\ngini = 0.5\nsamples = 2\nvalue = [1, 1]"] ;
343 -> 344 ;
345 [label="gini = 0.0\nsamples = 1\nvalue = [0, 1]"] ;
344 -> 345 ;
346 [label="gini = 0.0\nsamples = 1\nvalue = [1, 0]"] ;
344 -> 346 ;
347 [label="gini = 0.0\nsamples = 1\nvalue = [0, 2]"] ;
343 -> 347 ;
348 [label="num_/ <= 2.3\ngini = 0.3\nsamples = 3\nvalue = [5, 1]"] ;
340 -> 348 ;
349 [label="host_length <= -0.6\ngini = 0.4\nsamples = 2\nvalue = [2, 1]"] ;
348 -> 349 ;
350 [label="gini = 0.0\nsamples = 1\nvalue = [0, 1]"] ;
349 -> 350 ;
351 [label="gini = 0.0\nsamples = 1\nvalue = [2, 0]"] ;
349 -> 351 ;
352 [label="gini = 0.0\nsamples = 1\nvalue = [3, 0]"] ;
348 -> 352 ;
353 [label="gini = 0.0\nsamples = 8\nvalue = [0, 13]"] ;
339 -> 353 ;
354 [label="host_length <= -0.6\ngini = 0.2\nsamples = 27\nvalue = [36, 4]"] ;
338 -> 354 ;
355 [label="gini = 0.0\nsamples = 12\nvalue = [17, 0]"] ;
354 -> 355 ;
356 [label="open_page_rank <= 0.4\ngini = 0.3\nsamples = 15\nvalue = [19, 4]"] ;
354 -> 356 ;
357 [label="num_. <= 0.0\ngini = 0.5\nsamples = 4\nvalue = [2, 3]"] ;
356 -> 357 ;
358 [label="gini = 0.0\nsamples = 2\nvalue = [2, 0]"] ;
357 -> 358 ;
359 [label="gini = 0.0\nsamples = 2\nvalue = [0, 3]"] ;
357 -> 359 ;
360 [label="tld_in_path <= 0.9\ngini = 0.1\nsamples = 11\nvalue = [17, 1]"] ;
356 -> 360 ;
361 [label="num_/ <= 0.7\ngini = 0.2\nsamples = 6\nvalue = [9, 1]"] ;
360 -> 361 ;
362 [label="num_/ <= 0.1\ngini = 0.5\nsamples = 2\nvalue = [1, 1]"] ;
361 -> 362 ;
363 [label="gini = 0.0\nsamples = 1\nvalue = [1, 0]"] ;
362 -> 363 ;
364 [label="gini = 0.0\nsamples = 1\nvalue = [0, 1]"] ;
362 -> 364 ;
365 [label="gini = 0.0\nsamples = 4\nvalue = [8, 0]"] ;
361 -> 365 ;
366 [label="gini = 0.0\nsamples = 5\nvalue = [8, 0]"] ;
360 -> 366 ;
367 [label="num_/ <= 2.3\ngini = 0.3\nsamples = 46\nvalue = [57, 11]"] ;
337 -> 367 ;
368 [label="sus_extension_type <= 1.9\ngini = 0.3\nsamples = 45\nvalue = [57, 10]"] ;
367 -> 368 ;
369 [label="numLinks <= -0.4\ngini = 0.2\nsamples = 42\nvalue = [57, 7]"] ;
368 -> 369 ;
370 [label="open_page_rank <= -0.4\ngini = 0.2\nsamples = 41\nvalue = [57, 6]"] ;
369 -> 370 ;
371 [label="tld_in_path <= 0.9\ngini = 0.4\nsamples = 11\nvalue = [12, 5]"] ;
370 -> 371 ;
372 [label="open_page_rank <= -0.8\ngini = 0.2\nsamples = 9\nvalue = [12, 2]"] ;
371 -> 372 ;
373 [label="gini = 0.0\nsamples = 7\nvalue = [12, 0]"] ;
372 -> 373 ;
374 [label="gini = 0.0\nsamples = 2\nvalue = [0, 2]"] ;
372 -> 374 ;
375 [label="gini = 0.0\nsamples = 2\nvalue = [0, 3]"] ;
371 -> 375 ;
376 [label="url_length <= 0.1\ngini = 0.0\nsamples = 30\nvalue = [45, 1]"] ;
370 -> 376 ;
377 [label="phish_hints <= 1.6\ngini = 0.1\nsamples = 15\nvalue = [21, 1]"] ;
376 -> 377 ;
378 [label="gini = 0.0\nsamples = 13\nvalue = [19, 0]"] ;
377 -> 378 ;
379 [label="tld_in_path <= 0.9\ngini = 0.4\nsamples = 2\nvalue = [2, 1]"] ;
377 -> 379 ;
380 [label="gini = 0.0\nsamples = 1\nvalue = [2, 0]"] ;
379 -> 380 ;
381 [label="gini = 0.0\nsamples = 1\nvalue = [0, 1]"] ;
379 -> 381 ;
382 [label="gini = 0.0\nsamples = 15\nvalue = [24, 0]"] ;
376 -> 382 ;
383 [label="gini = 0.0\nsamples = 1\nvalue = [0, 1]"] ;
369 -> 383 ;
384 [label="gini = 0.0\nsamples = 3\nvalue = [0, 3]"] ;
368 -> 384 ;
385 [label="gini = 0.0\nsamples = 1\nvalue = [0, 1]"] ;
367 -> 385 ;
386 [label="url_length_sus <= 0.7\ngini = 0.3\nsamples = 15\nvalue = [4, 14]"] ;
336 -> 386 ;
387 [label="gini = 0.0\nsamples = 3\nvalue = [4, 0]"] ;
386 -> 387 ;
388 [label="gini = 0.0\nsamples = 12\nvalue = [0, 14]"] ;
386 -> 388 ;
389 [label="num_params <= 0.2\ngini = 0.1\nsamples = 16\nvalue = [29, 2]"] ;
335 -> 389 ;
390 [label="tld_in_path <= 0.9\ngini = 0.1\nsamples = 15\nvalue = [29, 1]"] ;
389 -> 390 ;
391 [label="gini = 0.0\nsamples = 13\nvalue = [25, 0]"] ;
390 -> 391 ;
392 [label="url_length <= -0.1\ngini = 0.3\nsamples = 2\nvalue = [4, 1]"] ;
390 -> 392 ;
393 [label="gini = 0.0\nsamples = 1\nvalue = [0, 1]"] ;
392 -> 393 ;
394 [label="gini = 0.0\nsamples = 1\nvalue = [4, 0]"] ;
392 -> 394 ;
395 [label="gini = 0.0\nsamples = 1\nvalue = [0, 1]"] ;
389 -> 395 ;
396 [label="gini = 0.0\nsamples = 4\nvalue = [0, 7]"] ;
332 -> 396 ;
397 [label="is_https <= 0.2\ngini = 0.5\nsamples = 79\nvalue = [43, 75]"] ;
331 -> 397 ;
398 [label="url_entropy <= 0.6\ngini = 0.4\nsamples = 65\nvalue = [29, 70]"] ;
397 -> 398 ;
399 [label="num_redirects <= 0.1\ngini = 0.5\nsamples = 37\nvalue = [25, 34]"] ;
398 -> 399 ;
400 [label="tld_in_path <= 0.9\ngini = 0.5\nsamples = 34\nvalue = [20, 34]"] ;
399 -> 400 ;
401 [label="num_/ <= 0.1\ngini = 0.5\nsamples = 26\nvalue = [19, 22]"] ;
400 -> 401 ;
402 [label="is_ip <= 5.2\ngini = 0.5\nsamples = 25\nvalue = [18, 22]"] ;
401 -> 402 ;
403 [label="url_entropy <= 0.0\ngini = 0.5\nsamples = 22\nvalue = [18, 18]"] ;
402 -> 403 ;
404 [label="open_page_rank <= -0.8\ngini = 0.4\nsamples = 15\nvalue = [6, 18]"] ;
403 -> 404 ;
405 [label="gini = 0.0\nsamples = 7\nvalue = [0, 13]"] ;
404 -> 405 ;
406 [label="hostname_2length_ratio <= 0.9\ngini = 0.5\nsamples = 8\nvalue = [6, 5]"] ;
404 -> 406 ;
407 [label="num_. <= 0.0\ngini = 0.4\nsamples = 4\nvalue = [2, 5]"] ;
406 -> 407 ;
408 [label="num_/ <= -0.4\ngini = 0.5\nsamples = 3\nvalue = [2, 2]"] ;
407 -> 408 ;
409 [label="gini = 0.0\nsamples = 1\nvalue = [2, 0]"] ;
408 -> 409 ;
410 [label="gini = 0.0\nsamples = 2\nvalue = [0, 2]"] ;
408 -> 410 ;
411 [label="gini = 0.0\nsamples = 1\nvalue = [0, 3]"] ;
407 -> 411 ;
412 [label="gini = 0.0\nsamples = 4\nvalue = [4, 0]"] ;
406 -> 412 ;
413 [label="gini = 0.0\nsamples = 7\nvalue = [12, 0]"] ;
403 -> 413 ;
414 [label="gini = 0.0\nsamples = 3\nvalue = [0, 4]"] ;
402 -> 414 ;
415 [label="gini = 0.0\nsamples = 1\nvalue = [1, 0]"] ;
401 -> 415 ;
416 [label="open_page_rank <= 0.2\ngini = 0.1\nsamples = 8\nvalue = [1, 12]"] ;
400 -> 416 ;
417 [label="gini = 0.0\nsamples = 6\nvalue = [0, 10]"] ;
416 -> 417 ;
418 [label="num_? <= 1.0\ngini = 0.4\nsamples = 2\nvalue = [1, 2]"] ;
416 -> 418 ;
419 [label="gini = 0.0\nsamples = 1\nvalue = [1, 0]"] ;
418 -> 419 ;
420 [label="gini = 0.0\nsamples = 1\nvalue = [0, 2]"] ;
418 -> 420 ;
421 [label="gini = 0.0\nsamples = 3\nvalue = [5, 0]"] ;
399 -> 421 ;
422 [label="hostname_2length_ratio <= 0.6\ngini = 0.2\nsamples = 28\nvalue = [4, 36]"] ;
398 -> 422 ;
423 [label="num_- <= -0.2\ngini = 0.4\nsamples = 12\nvalue = [3, 10]"] ;
422 -> 423 ;
424 [label="url_length <= -0.3\ngini = 0.2\nsamples = 10\nvalue = [1, 10]"] ;
423 -> 424 ;
425 [label="url_length <= -0.4\ngini = 0.5\nsamples = 2\nvalue = [1, 1]"] ;
424 -> 425 ;
426 [label="gini = 0.0\nsamples = 1\nvalue = [0, 1]"] ;
425 -> 426 ;
427 [label="gini = 0.0\nsamples = 1\nvalue = [1, 0]"] ;
425 -> 427 ;
428 [label="gini = 0.0\nsamples = 8\nvalue = [0, 9]"] ;
424 -> 428 ;
429 [label="gini = 0.0\nsamples = 2\nvalue = [2, 0]"] ;
423 -> 429 ;
430 [label="open_page_rank <= -0.6\ngini = 0.1\nsamples = 16\nvalue = [1, 26]"] ;
422 -> 430 ;
431 [label="gini = 0.0\nsamples = 14\nvalue = [0, 25]"] ;
430 -> 431 ;
432 [label="num_/ <= -1.0\ngini = 0.5\nsamples = 2\nvalue = [1, 1]"] ;
430 -> 432 ;
433 [label="gini = 0.0\nsamples = 1\nvalue = [1, 0]"] ;
432 -> 433 ;
434 [label="gini = 0.0\nsamples = 1\nvalue = [0, 1]"] ;
432 -> 434 ;
435 [label="hostname_2length_ratio <= 1.5\ngini = 0.4\nsamples = 14\nvalue = [14, 5]"] ;
397 -> 435 ;
436 [label="num_www <= 0.1\ngini = 0.3\nsamples = 13\nvalue = [14, 3]"] ;
435 -> 436 ;
437 [label="gini = 0.0\nsamples = 2\nvalue = [0, 2]"] ;
436 -> 437 ;
438 [label="url_entropy <= -0.4\ngini = 0.1\nsamples = 11\nvalue = [14, 1]"] ;
436 -> 438 ;
439 [label="url_entropy <= -0.6\ngini = 0.3\nsamples = 3\nvalue = [5, 1]"] ;
438 -> 439 ;
440 [label="gini = 0.0\nsamples = 2\nvalue = [5, 0]"] ;
439 -> 440 ;
441 [label="gini = 0.0\nsamples = 1\nvalue = [0, 1]"] ;
439 -> 441 ;
442 [label="gini = 0.0\nsamples = 8\nvalue = [9, 0]"] ;
438 -> 442 ;
443 [label="gini = 0.0\nsamples = 1\nvalue = [0, 2]"] ;
435 -> 443 ;
444 [label="num_~ <= 6.0\ngini = 0.3\nsamples = 70\nvalue = [86, 22]"] ;
330 -> 444 ;
445 [label="open_page_rank <= -0.8\ngini = 0.3\nsamples = 67\nvalue = [86, 17]"] ;
444 -> 445 ;
446 [label="gini = 0.0\nsamples = 8\nvalue = [0, 13]"] ;
445 -> 446 ;
447 [label="num_params <= 1.2\ngini = 0.1\nsamples = 59\nvalue = [86, 4]"] ;
445 -> 447 ;
448 [label="is_https <= 0.2\ngini = 0.0\nsamples = 57\nvalue = [86, 2]"] ;
447 -> 448 ;
449 [label="sus_extension_type <= 1.9\ngini = 0.1\nsamples = 44\nvalue = [67, 2]"] ;
448 -> 449 ;
450 [label="gini = 0.0\nsamples = 42\nvalue = [66, 0]"] ;
449 -> 450 ;
451 [label="hostname_2length_ratio <= -0.3\ngini = 0.4\nsamples = 2\nvalue = [1, 2]"] ;
449 -> 451 ;
452 [label="gini = 0.0\nsamples = 1\nvalue = [0, 2]"] ;
451 -> 452 ;
453 [label="gini = 0.0\nsamples = 1\nvalue = [1, 0]"] ;
451 -> 453 ;
454 [label="gini = 0.0\nsamples = 13\nvalue = [19, 0]"] ;
448 -> 454 ;
455 [label="gini = 0.0\nsamples = 2\nvalue = [0, 2]"] ;
447 -> 455 ;
456 [label="gini = 0.0\nsamples = 3\nvalue = [0, 5]"] ;
444 -> 456 ;
457 [label="url_entropy <= -1.9\ngini = 0.3\nsamples = 146\nvalue = [49, 178]"] ;
329 -> 457 ;
458 [label="host_length <= -0.8\ngini = 0.2\nsamples = 5\nvalue = [6, 1]"] ;
457 -> 458 ;
459 [label="gini = 0.0\nsamples = 4\nvalue = [6, 0]"] ;
458 -> 459 ;
460 [label="gini = 0.0\nsamples = 1\nvalue = [0, 1]"] ;
458 -> 460 ;
461 [label="host_length <= -0.4\ngini = 0.3\nsamples = 141\nvalue = [43, 177]"] ;
457 -> 461 ;
462 [label="open_page_rank <= 1.6\ngini = 0.2\nsamples = 72\nvalue = [12, 99]"] ;
461 -> 462 ;
463 [label="num_- <= 0.7\ngini = 0.3\nsamples = 47\nvalue = [12, 52]"] ;
462 -> 463 ;
464 [label="num_- <= 0.2\ngini = 0.3\nsamples = 45\nvalue = [10, 52]"] ;
463 -> 464 ;
465 [label="numImages <= -0.2\ngini = 0.3\nsamples = 42\nvalue = [9, 49]"] ;
464 -> 465 ;
466 [label="body_length <= -0.3\ngini = 0.4\nsamples = 28\nvalue = [9, 28]"] ;
465 -> 466 ;
467 [label="hostname_2length_ratio <= 0.9\ngini = 0.2\nsamples = 22\nvalue = [4, 27]"] ;
466 -> 467 ;
468 [label="num_/ <= -0.4\ngini = 0.1\nsamples = 20\nvalue = [2, 27]"] ;
467 -> 468 ;
469 [label="specialCharacters <= -0.3\ngini = 0.3\nsamples = 3\nvalue = [1, 4]"] ;
468 -> 469 ;
470 [label="gini = 0.0\nsamples = 1\nvalue = [1, 0]"] ;
469 -> 470 ;
471 [label="gini = 0.0\nsamples = 2\nvalue = [0, 4]"] ;
469 -> 471 ;
472 [label="url_length <= -0.2\ngini = 0.1\nsamples = 17\nvalue = [1, 23]"] ;
468 -> 472 ;
473 [label="gini = 0.0\nsamples = 10\nvalue = [0, 16]"] ;
472 -> 473 ;
474 [label="body_length <= -0.3\ngini = 0.2\nsamples = 7\nvalue = [1, 7]"] ;
472 -> 474 ;
475 [label="gini = 0.0\nsamples = 6\nvalue = [0, 7]"] ;
474 -> 475 ;
476 [label="gini = 0.0\nsamples = 1\nvalue = [1, 0]"] ;
474 -> 476 ;
477 [label="gini = 0.0\nsamples = 2\nvalue = [2, 0]"] ;
467 -> 477 ;
478 [label="host_length <= -0.9\ngini = 0.3\nsamples = 6\nvalue = [5, 1]"] ;
466 -> 478 ;
479 [label="gini = 0.0\nsamples = 1\nvalue = [0, 1]"] ;
478 -> 479 ;
480 [label="gini = 0.0\nsamples = 5\nvalue = [5, 0]"] ;
478 -> 480 ;
481 [label="gini = 0.0\nsamples = 14\nvalue = [0, 21]"] ;
465 -> 481 ;
482 [label="numLinks <= -0.4\ngini = 0.4\nsamples = 3\nvalue = [1, 3]"] ;
464 -> 482 ;
483 [label="gini = 0.0\nsamples = 2\nvalue = [0, 3]"] ;
482 -> 483 ;
484 [label="gini = 0.0\nsamples = 1\nvalue = [1, 0]"] ;
482 -> 484 ;
485 [label="gini = 0.0\nsamples = 2\nvalue = [2, 0]"] ;
463 -> 485 ;
486 [label="gini = 0.0\nsamples = 25\nvalue = [0, 47]"] ;
462 -> 486 ;
487 [label="hostname_2length_ratio <= -0.3\ngini = 0.4\nsamples = 69\nvalue = [31, 78]"] ;
461 -> 487 ;
488 [label="host_length <= 0.9\ngini = 0.5\nsamples = 19\nvalue = [17, 14]"] ;
487 -> 488 ;
489 [label="specialCharacters <= -0.3\ngini = 0.5\nsamples = 18\nvalue = [17, 12]"] ;
488 -> 489 ;
490 [label="hostname_2length_ratio <= -0.7\ngini = 0.4\nsamples = 9\nvalue = [5, 11]"] ;
489 -> 490 ;
491 [label="gini = 0.0\nsamples = 4\nvalue = [0, 8]"] ;
490 -> 491 ;
492 [label="num_- <= -0.2\ngini = 0.5\nsamples = 5\nvalue = [5, 3]"] ;
490 -> 492 ;
493 [label="gini = 0.0\nsamples = 2\nvalue = [0, 3]"] ;
492 -> 493 ;
494 [label="gini = 0.0\nsamples = 3\nvalue = [5, 0]"] ;
492 -> 494 ;
495 [label="num_digits <= 0.3\ngini = 0.1\nsamples = 9\nvalue = [12, 1]"] ;
489 -> 495 ;
496 [label="gini = 0.0\nsamples = 6\nvalue = [10, 0]"] ;
495 -> 496 ;
497 [label="num_redirects <= 0.1\ngini = 0.4\nsamples = 3\nvalue = [2, 1]"] ;
495 -> 497 ;
498 [label="gini = 0.0\nsamples = 1\nvalue = [1, 0]"] ;
497 -> 498 ;
499 [label="specialCharacters <= -0.3\ngini = 0.5\nsamples = 2\nvalue = [1, 1]"] ;
497 -> 499 ;
500 [label="gini = 0.0\nsamples = 1\nvalue = [1, 0]"] ;
499 -> 500 ;
501 [label="gini = 0.0\nsamples = 1\nvalue = [0, 1]"] ;
499 -> 501 ;
502 [label="gini = 0.0\nsamples = 1\nvalue = [0, 2]"] ;
488 -> 502 ;
503 [label="phish_hints <= 0.3\ngini = 0.3\nsamples = 50\nvalue = [14, 64]"] ;
487 -> 503 ;
504 [label="host_length <= -0.3\ngini = 0.4\nsamples = 37\nvalue = [14, 46]"] ;
503 -> 504 ;
505 [label="num_digits <= -0.6\ngini = 0.4\nsamples = 4\nvalue = [5, 2]"] ;
504 -> 505 ;
506 [label="gini = 0.0\nsamples = 3\nvalue = [5, 0]"] ;
505 -> 506 ;
507 [label="gini = 0.0\nsamples = 1\nvalue = [0, 2]"] ;
505 -> 507 ;
508 [label="url_length <= -0.1\ngini = 0.3\nsamples = 33\nvalue = [9, 44]"] ;
504 -> 508 ;
509 [label="numImages <= -0.2\ngini = 0.2\nsamples = 30\nvalue = [4, 44]"] ;
508 -> 509 ;
510 [label="specialCharacters <= -0.3\ngini = 0.2\nsamples = 18\nvalue = [4, 27]"] ;
509 -> 510 ;
511 [label="num_com <= -0.4\ngini = 0.1\nsamples = 16\nvalue = [1, 27]"] ;
510 -> 511 ;
512 [label="gini = 0.0\nsamples = 1\nvalue = [0, 1]"] ;
511 -> 512 ;
513 [label="tld_in_path <= 0.9\ngini = 0.1\nsamples = 15\nvalue = [1, 26]"] ;
511 -> 513 ;
514 [label="months_since_creation <= 0.8\ngini = 0.1\nsamples = 13\nvalue = [1, 23]"] ;
513 -> 514 ;
515 [label="gini = 0.0\nsamples = 10\nvalue = [0, 20]"] ;
514 -> 515 ;
516 [label="num_www <= 0.1\ngini = 0.4\nsamples = 3\nvalue = [1, 3]"] ;
514 -> 516 ;
517 [label="gini = 0.0\nsamples = 2\nvalue = [0, 3]"] ;
516 -> 517 ;
518 [label="gini = 0.0\nsamples = 1\nvalue = [1, 0]"] ;
516 -> 518 ;
519 [label="gini = 0.0\nsamples = 2\nvalue = [0, 3]"] ;
513 -> 519 ;
520 [label="gini = 0.0\nsamples = 2\nvalue = [3, 0]"] ;
510 -> 520 ;
521 [label="gini = 0.0\nsamples = 12\nvalue = [0, 17]"] ;
509 -> 521 ;
522 [label="gini = 0.0\nsamples = 3\nvalue = [5, 0]"] ;
508 -> 522 ;
523 [label="gini = 0.0\nsamples = 13\nvalue = [0, 18]"] ;
503 -> 523 ;
524 [label="num_digits <= -0.6\ngini = 0.1\nsamples = 98\nvalue = [6, 168]"] ;
326 -> 524 ;
525 [label="specialCharacters <= -0.3\ngini = 0.4\nsamples = 4\nvalue = [2, 5]"] ;
524 -> 525 ;
526 [label="gini = 0.0\nsamples = 2\nvalue = [0, 5]"] ;
525 -> 526 ;
527 [label="gini = 0.0\nsamples = 2\nvalue = [2, 0]"] ;
525 -> 527 ;
528 [label="hostname_2length_ratio <= -0.3\ngini = 0.0\nsamples = 94\nvalue = [4, 163]"] ;
524 -> 528 ;
529 [label="gini = 0.0\nsamples = 79\nvalue = [0, 144]"] ;
528 -> 529 ;
530 [label="months_since_creation <= 1.2\ngini = 0.3\nsamples = 15\nvalue = [4, 19]"] ;
528 -> 530 ;
531 [label="num_digits <= -0.1\ngini = 0.1\nsamples = 14\nvalue = [1, 19]"] ;
530 -> 531 ;
532 [label="gini = 0.0\nsamples = 13\nvalue = [0, 19]"] ;
531 -> 532 ;
533 [label="gini = 0.0\nsamples = 1\nvalue = [1, 0]"] ;
531 -> 533 ;
534 [label="gini = 0.0\nsamples = 1\nvalue = [3, 0]"] ;
530 -> 534 ;
535 [label="url_length <= 0.2\ngini = 0.5\nsamples = 113\nvalue = [120, 65]"] ;
1 -> 535 ;
536 [label="num_& <= 0.4\ngini = 0.4\nsamples = 95\nvalue = [115, 38]"] ;
535 -> 536 ;
537 [label="sus_extension_type <= 1.9\ngini = 0.4\nsamples = 94\nvalue = [115, 35]"] ;
536 -> 537 ;
538 [label="phish_hints <= 0.3\ngini = 0.3\nsamples = 88\nvalue = [113, 29]"] ;
537 -> 538 ;
539 [label="num_. <= -0.7\ngini = 0.3\nsamples = 79\nvalue = [112, 20]"] ;
538 -> 539 ;
540 [label="numImages <= -0.2\ngini = 0.5\nsamples = 13\nvalue = [15, 9]"] ;
539 -> 540 ;
541 [label="gini = 0.0\nsamples = 5\nvalue = [0, 9]"] ;
540 -> 541 ;
542 [label="gini = 0.0\nsamples = 8\nvalue = [15, 0]"] ;
540 -> 542 ;
543 [label="num_. <= 0.7\ngini = 0.2\nsamples = 66\nvalue = [97, 11]"] ;
539 -> 543 ;
544 [label="numImages <= -0.2\ngini = 0.2\nsamples = 64\nvalue = [97, 9]"] ;
543 -> 544 ;
545 [label="num_www <= 0.1\ngini = 0.3\nsamples = 23\nvalue = [32, 7]"] ;
544 -> 545 ;
546 [label="open_page_rank <= 0.0\ngini = 0.5\nsamples = 8\nvalue = [8, 7]"] ;
545 -> 546 ;
547 [label="num_- <= -0.2\ngini = 0.4\nsamples = 5\nvalue = [3, 7]"] ;
546 -> 547 ;
548 [label="num_/ <= -0.4\ngini = 0.5\nsamples = 3\nvalue = [3, 4]"] ;
547 -> 548 ;
549 [label="numLinks <= -0.2\ngini = 0.5\nsamples = 2\nvalue = [3, 2]"] ;
548 -> 549 ;
550 [label="gini = 0.0\nsamples = 1\nvalue = [3, 0]"] ;
549 -> 550 ;
551 [label="gini = 0.0\nsamples = 1\nvalue = [0, 2]"] ;
549 -> 551 ;
552 [label="gini = 0.0\nsamples = 1\nvalue = [0, 2]"] ;
548 -> 552 ;
553 [label="gini = 0.0\nsamples = 2\nvalue = [0, 3]"] ;
547 -> 553 ;
554 [label="gini = 0.0\nsamples = 3\nvalue = [5, 0]"] ;
546 -> 554 ;
555 [label="gini = 0.0\nsamples = 15\nvalue = [24, 0]"] ;
545 -> 555 ;
556 [label="url_entropy <= 0.6\ngini = 0.1\nsamples = 41\nvalue = [65, 2]"] ;
544 -> 556 ;
557 [label="gini = 0.0\nsamples = 32\nvalue = [52, 0]"] ;
556 -> 557 ;
558 [label="num_www <= 0.1\ngini = 0.2\nsamples = 9\nvalue = [13, 2]"] ;
556 -> 558 ;
559 [label="body_length <= 0.5\ngini = 0.4\nsamples = 5\nvalue = [5, 2]"] ;
558 -> 559 ;
560 [label="url_length <= -0.3\ngini = 0.3\nsamples = 4\nvalue = [5, 1]"] ;
559 -> 560 ;
561 [label="gini = 0.0\nsamples = 2\nvalue = [4, 0]"] ;
560 -> 561 ;
562 [label="specialCharacters <= -0.3\ngini = 0.5\nsamples = 2\nvalue = [1, 1]"] ;
560 -> 562 ;
563 [label="gini = 0.0\nsamples = 1\nvalue = [1, 0]"] ;
562 -> 563 ;
564 [label="gini = 0.0\nsamples = 1\nvalue = [0, 1]"] ;
562 -> 564 ;
565 [label="gini = 0.0\nsamples = 1\nvalue = [0, 1]"] ;
559 -> 565 ;
566 [label="gini = 0.0\nsamples = 4\nvalue = [8, 0]"] ;
558 -> 566 ;
567 [label="gini = 0.0\nsamples = 2\nvalue = [0, 2]"] ;
543 -> 567 ;
568 [label="hostname_2length_ratio <= -0.6\ngini = 0.2\nsamples = 9\nvalue = [1, 9]"] ;
538 -> 568 ;
569 [label="gini = 0.0\nsamples = 1\nvalue = [1, 0]"] ;
568 -> 569 ;
570 [label="gini = 0.0\nsamples = 8\nvalue = [0, 9]"] ;
568 -> 570 ;
571 [label="numImages <= -0.2\ngini = 0.4\nsamples = 6\nvalue = [2, 6]"] ;
537 -> 571 ;
572 [label="gini = 0.0\nsamples = 4\nvalue = [0, 6]"] ;
571 -> 572 ;
573 [label="gini = 0.0\nsamples = 2\nvalue = [2, 0]"] ;
571 -> 573 ;
574 [label="gini = 0.0\nsamples = 1\nvalue = [0, 3]"] ;
536 -> 574 ;
575 [label="url_entropy <= 0.3\ngini = 0.3\nsamples = 18\nvalue = [5, 27]"] ;
535 -> 575 ;
576 [label="url_entropy <= -0.4\ngini = 0.4\nsamples = 4\nvalue = [5, 2]"] ;
575 -> 576 ;
577 [label="gini = 0.0\nsamples = 1\nvalue = [0, 2]"] ;
576 -> 577 ;
578 [label="gini = 0.0\nsamples = 3\nvalue = [5, 0]"] ;
576 -> 578 ;
579 [label="gini = 0.0\nsamples = 14\nvalue = [0, 25]"] ;
575 -> 579 ;
580 [label="num_params <= 0.2\ngini = 0.4\nsamples = 3770\nvalue = [4338, 1665]"] ;
0 -> 580 [labeldistance=2.5, labelangle=-45, headlabel="False"] ;
581 [label="hostname_2length_ratio <= 1.5\ngini = 0.4\nsamples = 3470\nvalue = [4197, 1327]"] ;
580 -> 581 ;
582 [label="numLinks <= -0.2\ngini = 0.3\nsamples = 3225\nvalue = [4029, 1091]"] ;
581 -> 582 ;
583 [label="phish_hints <= 0.3\ngini = 0.5\nsamples = 1000\nvalue = [729, 841]"] ;
582 -> 583 ;
584 [label="sus_extension_type <= 1.9\ngini = 0.5\nsamples = 810\nvalue = [712, 566]"] ;
583 -> 584 ;
585 [label="num_digits <= 1.4\ngini = 0.5\nsamples = 774\nvalue = [706, 518]"] ;
584 -> 585 ;
586 [label="num_www <= 0.1\ngini = 0.5\nsamples = 760\nvalue = [705, 499]"] ;
585 -> 586 ;
587 [label="num_/ <= -1.0\ngini = 0.5\nsamples = 438\nvalue = [242, 440]"] ;
586 -> 587 ;
588 [label="numLinks <= -0.4\ngini = 0.5\nsamples = 51\nvalue = [49, 30]"] ;
587 -> 588 ;
589 [label="open_page_rank <= -0.6\ngini = 0.1\nsamples = 15\nvalue = [24, 2]"] ;
588 -> 589 ;
590 [label="num_- <= -0.2\ngini = 0.3\nsamples = 7\nvalue = [11, 2]"] ;
589 -> 590 ;
591 [label="num_. <= -0.7\ngini = 0.2\nsamples = 5\nvalue = [10, 1]"] ;
590 -> 591 ;
592 [label="gini = 0.0\nsamples = 1\nvalue = [1, 0]"] ;
591 -> 592 ;
593 [label="scriptBodyRatio <= -0.0\ngini = 0.2\nsamples = 4\nvalue = [9, 1]"] ;
591 -> 593 ;
594 [label="gini = 0.0\nsamples = 1\nvalue = [0, 1]"] ;
593 -> 594 ;
595 [label="gini = 0.0\nsamples = 3\nvalue = [9, 0]"] ;
593 -> 595 ;
596 [label="num_com <= -0.4\ngini = 0.5\nsamples = 2\nvalue = [1, 1]"] ;
590 -> 596 ;
597 [label="gini = 0.0\nsamples = 1\nvalue = [0, 1]"] ;
596 -> 597 ;
598 [label="gini = 0.0\nsamples = 1\nvalue = [1, 0]"] ;
596 -> 598 ;
599 [label="gini = 0.0\nsamples = 8\nvalue = [13, 0]"] ;
589 -> 599 ;
600 [label="numLinks <= -0.3\ngini = 0.5\nsamples = 36\nvalue = [25, 28]"] ;
588 -> 600 ;
601 [label="numImages <= -0.2\ngini = 0.3\nsamples = 25\nvalue = [7, 28]"] ;
600 -> 601 ;
602 [label="body_length <= -0.3\ngini = 0.1\nsamples = 18\nvalue = [1, 23]"] ;
601 -> 602 ;
603 [label="gini = 0.0\nsamples = 17\nvalue = [0, 23]"] ;
602 -> 603 ;
604 [label="gini = 0.0\nsamples = 1\nvalue = [1, 0]"] ;
602 -> 604 ;
605 [label="body_length <= 0.0\ngini = 0.5\nsamples = 7\nvalue = [6, 5]"] ;
601 -> 605 ;
606 [label="url_entropy <= 0.3\ngini = 0.2\nsamples = 5\nvalue = [6, 1]"] ;
605 -> 606 ;
607 [label="gini = 0.0\nsamples = 4\nvalue = [6, 0]"] ;
606 -> 607 ;
608 [label="gini = 0.0\nsamples = 1\nvalue = [0, 1]"] ;
606 -> 608 ;
609 [label="gini = 0.0\nsamples = 2\nvalue = [0, 4]"] ;
605 -> 609 ;
610 [label="gini = 0.0\nsamples = 11\nvalue = [18, 0]"] ;
600 -> 610 ;
611 [label="num_- <= 0.7\ngini = 0.4\nsamples = 387\nvalue = [193, 410]"] ;
587 -> 611 ;
612 [label="url_length <= -0.6\ngini = 0.4\nsamples = 364\nvalue = [168, 403]"] ;
611 -> 612 ;
613 [label="is_ip <= 5.2\ngini = 0.3\nsamples = 74\nvalue = [19, 102]"] ;
612 -> 613 ;
614 [label="open_page_rank <= 2.6\ngini = 0.3\nsamples = 72\nvalue = [19, 99]"] ;
613 -> 614 ;
615 [label="numLinks <= -0.4\ngini = 0.3\nsamples = 70\nvalue = [17, 99]"] ;
614 -> 615 ;
616 [label="url_entropy <= -1.5\ngini = 0.4\nsamples = 20\nvalue = [9, 21]"] ;
615 -> 616 ;
617 [label="url_entropy <= -2.0\ngini = 0.4\nsamples = 5\nvalue = [5, 2]"] ;
616 -> 617 ;
618 [label="url_length <= -0.7\ngini = 0.4\nsamples = 3\nvalue = [1, 2]"] ;
617 -> 618 ;
619 [label="gini = 0.0\nsamples = 2\nvalue = [0, 2]"] ;
618 -> 619 ;
620 [label="gini = 0.0\nsamples = 1\nvalue = [1, 0]"] ;
618 -> 620 ;
621 [label="gini = 0.0\nsamples = 2\nvalue = [4, 0]"] ;
617 -> 621 ;
622 [label="scriptBodyRatio <= -0.1\ngini = 0.3\nsamples = 15\nvalue = [4, 19]"] ;
616 -> 622 ;
623 [label="url_entropy <= -1.0\ngini = 0.4\nsamples = 4\nvalue = [3, 1]"] ;
622 -> 623 ;
624 [label="gini = 0.0\nsamples = 1\nvalue = [0, 1]"] ;
623 -> 624 ;
625 [label="gini = 0.0\nsamples = 3\nvalue = [3, 0]"] ;
623 -> 625 ;
626 [label="num_redirects <= 0.1\ngini = 0.1\nsamples = 11\nvalue = [1, 18]"] ;
622 -> 626 ;
627 [label="body_length <= -0.3\ngini = 0.1\nsamples = 10\nvalue = [1, 16]"] ;
626 -> 627 ;
628 [label="gini = 0.0\nsamples = 8\nvalue = [0, 15]"] ;
627 -> 628 ;
629 [label="months_since_creation <= -0.9\ngini = 0.5\nsamples = 2\nvalue = [1, 1]"] ;
627 -> 629 ;
630 [label="gini = 0.0\nsamples = 1\nvalue = [0, 1]"] ;
629 -> 630 ;
631 [label="gini = 0.0\nsamples = 1\nvalue = [1, 0]"] ;
629 -> 631 ;
632 [label="gini = 0.0\nsamples = 1\nvalue = [0, 2]"] ;
626 -> 632 ;
633 [label="numImages <= -0.0\ngini = 0.2\nsamples = 50\nvalue = [8, 78]"] ;
615 -> 633 ;
634 [label="hostname_2length_ratio <= 0.2\ngini = 0.2\nsamples = 49\nvalue = [7, 78]"] ;
633 -> 634 ;
635 [label="numImages <= -0.2\ngini = 0.0\nsamples = 32\nvalue = [1, 58]"] ;
634 -> 635 ;
636 [label="url_entropy <= -2.4\ngini = 0.2\nsamples = 5\nvalue = [1, 8]"] ;
635 -> 636 ;
637 [label="gini = 0.0\nsamples = 4\nvalue = [0, 8]"] ;
636 -> 637 ;
638 [label="gini = 0.0\nsamples = 1\nvalue = [1, 0]"] ;
636 -> 638 ;
639 [label="gini = 0.0\nsamples = 27\nvalue = [0, 50]"] ;
635 -> 639 ;
640 [label="open_page_rank <= -0.4\ngini = 0.4\nsamples = 17\nvalue = [6, 20]"] ;
634 -> 640 ;
641 [label="num_/ <= -0.4\ngini = 0.1\nsamples = 10\nvalue = [1, 18]"] ;
640 -> 641 ;
642 [label="num_digits <= -0.8\ngini = 0.1\nsamples = 9\nvalue = [1, 17]"] ;
641 -> 642 ;
643 [label="gini = 0.0\nsamples = 1\nvalue = [1, 0]"] ;
642 -> 643 ;
644 [label="gini = 0.0\nsamples = 8\nvalue = [0, 17]"] ;
642 -> 644 ;
645 [label="gini = 0.0\nsamples = 1\nvalue = [0, 1]"] ;
641 -> 645 ;
646 [label="script_length <= -0.2\ngini = 0.4\nsamples = 7\nvalue = [5, 2]"] ;
640 -> 646 ;
647 [label="body_length <= -0.3\ngini = 0.3\nsamples = 6\nvalue = [5, 1]"] ;
646 -> 647 ;
648 [label="gini = 0.0\nsamples = 1\nvalue = [0, 1]"] ;
647 -> 648 ;
649 [label="gini = 0.0\nsamples = 5\nvalue = [5, 0]"] ;
647 -> 649 ;
650 [label="gini = 0.0\nsamples = 1\nvalue = [0, 1]"] ;
646 -> 650 ;
651 [label="gini = 0.0\nsamples = 1\nvalue = [1, 0]"] ;
633 -> 651 ;
652 [label="gini = 0.0\nsamples = 2\nvalue = [2, 0]"] ;
614 -> 652 ;
653 [label="gini = 0.0\nsamples = 2\nvalue = [0, 3]"] ;
613 -> 653 ;
654 [label="open_page_rank <= 0.0\ngini = 0.4\nsamples = 290\nvalue = [149, 301]"] ;
612 -> 654 ;
655 [label="url_length <= -0.5\ngini = 0.3\nsamples = 191\nvalue = [48, 258]"] ;
654 -> 655 ;
656 [label="num_com <= -0.4\ngini = 0.4\nsamples = 74\nvalue = [30, 94]"] ;
655 -> 656 ;
657 [label="scriptBodyRatio <= -0.1\ngini = 0.1\nsamples = 33\nvalue = [4, 53]"] ;
656 -> 657 ;
658 [label="scriptBodyRatio <= -0.1\ngini = 0.1\nsamples = 26\nvalue = [2, 47]"] ;
657 -> 658 ;
659 [label="gini = 0.0\nsamples = 14\nvalue = [0, 28]"] ;
658 -> 659 ;
660 [label="numImages <= -0.1\ngini = 0.2\nsamples = 12\nvalue = [2, 19]"] ;
658 -> 660 ;
661 [label="script_length <= -0.2\ngini = 0.1\nsamples = 11\nvalue = [1, 19]"] ;
660 -> 661 ;
662 [label="gini = 0.0\nsamples = 1\nvalue = [1, 0]"] ;
661 -> 662 ;
663 [label="gini = 0.0\nsamples = 10\nvalue = [0, 19]"] ;
661 -> 663 ;
664 [label="gini = 0.0\nsamples = 1\nvalue = [1, 0]"] ;
660 -> 664 ;
665 [label="url_entropy <= 0.2\ngini = 0.4\nsamples = 7\nvalue = [2, 6]"] ;
657 -> 665 ;
666 [label="gini = 0.0\nsamples = 4\nvalue = [0, 5]"] ;
665 -> 666 ;
667 [label="is_https <= 0.2\ngini = 0.4\nsamples = 3\nvalue = [2, 1]"] ;
665 -> 667 ;
668 [label="specialCharacters <= 0.5\ngini = 0.5\nsamples = 2\nvalue = [1, 1]"] ;
667 -> 668 ;
669 [label="gini = 0.0\nsamples = 1\nvalue = [1, 0]"] ;
668 -> 669 ;
670 [label="gini = 0.0\nsamples = 1\nvalue = [0, 1]"] ;
668 -> 670 ;
671 [label="gini = 0.0\nsamples = 1\nvalue = [1, 0]"] ;
667 -> 671 ;
672 [label="scriptBodyRatio <= -0.1\ngini = 0.5\nsamples = 41\nvalue = [26, 41]"] ;
656 -> 672 ;
673 [label="script_length <= -0.2\ngini = 0.5\nsamples = 15\nvalue = [17, 10]"] ;
672 -> 673 ;
674 [label="gini = 0.0\nsamples = 3\nvalue = [0, 5]"] ;
673 -> 674 ;
675 [label="numLinks <= -0.2\ngini = 0.4\nsamples = 12\nvalue = [17, 5]"] ;
673 -> 675 ;
676 [label="is_https <= 0.2\ngini = 0.1\nsamples = 11\nvalue = [17, 1]"] ;
675 -> 676 ;
677 [label="num_. <= -0.7\ngini = 0.4\nsamples = 3\nvalue = [2, 1]"] ;
676 -> 677 ;
678 [label="gini = 0.0\nsamples = 1\nvalue = [1, 0]"] ;
677 -> 678 ;
679 [label="numLinks <= -0.3\ngini = 0.5\nsamples = 2\nvalue = [1, 1]"] ;
677 -> 679 ;
680 [label="gini = 0.0\nsamples = 1\nvalue = [0, 1]"] ;
679 -> 680 ;
681 [label="gini = 0.0\nsamples = 1\nvalue = [1, 0]"] ;
679 -> 681 ;
682 [label="gini = 0.0\nsamples = 8\nvalue = [15, 0]"] ;
676 -> 682 ;
683 [label="gini = 0.0\nsamples = 1\nvalue = [0, 4]"] ;
675 -> 683 ;
684 [label="num_- <= -0.2\ngini = 0.3\nsamples = 26\nvalue = [9, 31]"] ;
672 -> 684 ;
685 [label="specialCharacters <= -0.1\ngini = 0.4\nsamples = 18\nvalue = [7, 19]"] ;
684 -> 685 ;
686 [label="url_length <= -0.5\ngini = 0.4\nsamples = 6\nvalue = [7, 3]"] ;
685 -> 686 ;
687 [label="script_length <= -0.1\ngini = 0.5\nsamples = 5\nvalue = [4, 3]"] ;
686 -> 687 ;
688 [label="months_since_creation <= -0.6\ngini = 0.5\nsamples = 3\nvalue = [2, 3]"] ;
687 -> 688 ;
689 [label="open_page_rank <= -0.6\ngini = 0.5\nsamples = 2\nvalue = [2, 2]"] ;
688 -> 689 ;
690 [label="gini = 0.0\nsamples = 1\nvalue = [0, 2]"] ;
689 -> 690 ;
691 [label="gini = 0.0\nsamples = 1\nvalue = [2, 0]"] ;
689 -> 691 ;
692 [label="gini = 0.0\nsamples = 1\nvalue = [0, 1]"] ;
688 -> 692 ;
693 [label="gini = 0.0\nsamples = 2\nvalue = [2, 0]"] ;
687 -> 693 ;
694 [label="gini = 0.0\nsamples = 1\nvalue = [3, 0]"] ;
686 -> 694 ;
695 [label="gini = 0.0\nsamples = 12\nvalue = [0, 16]"] ;
685 -> 695 ;
696 [label="url_entropy <= 0.6\ngini = 0.2\nsamples = 8\nvalue = [2, 12]"] ;
684 -> 696 ;
697 [label="gini = 0.0\nsamples = 1\nvalue = [2, 0]"] ;
696 -> 697 ;
698 [label="gini = 0.0\nsamples = 7\nvalue = [0, 12]"] ;
696 -> 698 ;
699 [label="body_length <= -0.2\ngini = 0.2\nsamples = 117\nvalue = [18, 164]"] ;
655 -> 699 ;
700 [label="script_length <= -0.2\ngini = 0.1\nsamples = 110\nvalue = [13, 155]"] ;
699 -> 700 ;
701 [label="months_since_creation <= 0.0\ngini = 0.5\nsamples = 5\nvalue = [3, 5]"] ;
700 -> 701 ;
702 [label="gini = 0.0\nsamples = 1\nvalue = [1, 0]"] ;
701 -> 702 ;
703 [label="num_- <= -0.2\ngini = 0.4\nsamples = 4\nvalue = [2, 5]"] ;
701 -> 703 ;
704 [label="host_length <= 0.1\ngini = 0.5\nsamples = 3\nvalue = [2, 2]"] ;
703 -> 704 ;
705 [label="gini = 0.0\nsamples = 1\nvalue = [0, 1]"] ;
704 -> 705 ;
706 [label="num_digits <= -0.5\ngini = 0.4\nsamples = 2\nvalue = [2, 1]"] ;
704 -> 706 ;
707 [label="gini = 0.0\nsamples = 1\nvalue = [0, 1]"] ;
706 -> 707 ;
708 [label="gini = 0.0\nsamples = 1\nvalue = [2, 0]"] ;
706 -> 708 ;
709 [label="gini = 0.0\nsamples = 1\nvalue = [0, 3]"] ;
703 -> 709 ;
710 [label="host_length <= 0.7\ngini = 0.1\nsamples = 105\nvalue = [10, 150]"] ;
700 -> 710 ;
711 [label="numLinks <= -0.2\ngini = 0.1\nsamples = 88\nvalue = [6, 126]"] ;
710 -> 711 ;
712 [label="body_length <= -0.3\ngini = 0.0\nsamples = 86\nvalue = [3, 126]"] ;
711 -> 712 ;
713 [label="num_digits <= -0.5\ngini = 0.3\nsamples = 7\nvalue = [2, 7]"] ;
712 -> 713 ;
714 [label="gini = 0.0\nsamples = 1\nvalue = [1, 0]"] ;
713 -> 714 ;
715 [label="num_com <= -0.4\ngini = 0.2\nsamples = 6\nvalue = [1, 7]"] ;
713 -> 715 ;
716 [label="script_length <= -0.2\ngini = 0.4\nsamples = 3\nvalue = [1, 3]"] ;
715 -> 716 ;
717 [label="gini = 0.0\nsamples = 2\nvalue = [0, 3]"] ;
716 -> 717 ;
718 [label="gini = 0.0\nsamples = 1\nvalue = [1, 0]"] ;
716 -> 718 ;
719 [label="gini = 0.0\nsamples = 3\nvalue = [0, 4]"] ;
715 -> 719 ;
720 [label="numLinks <= -0.4\ngini = 0.0\nsamples = 79\nvalue = [1, 119]"] ;
712 -> 720 ;
721 [label="gini = 0.0\nsamples = 56\nvalue = [0, 85]"] ;
720 -> 721 ;
722 [label="url_length <= -0.4\ngini = 0.1\nsamples = 23\nvalue = [1, 34]"] ;
720 -> 722 ;
723 [label="is_https <= 0.2\ngini = 0.2\nsamples = 6\nvalue = [1, 6]"] ;
722 -> 723 ;
724 [label="count_fragment <= 7.5\ngini = 0.5\nsamples = 2\nvalue = [1, 1]"] ;
723 -> 724 ;
725 [label="gini = 0.0\nsamples = 1\nvalue = [1, 0]"] ;
724 -> 725 ;
726 [label="gini = 0.0\nsamples = 1\nvalue = [0, 1]"] ;
724 -> 726 ;
727 [label="gini = 0.0\nsamples = 4\nvalue = [0, 5]"] ;
723 -> 727 ;
728 [label="gini = 0.0\nsamples = 17\nvalue = [0, 28]"] ;
722 -> 728 ;
729 [label="gini = 0.0\nsamples = 2\nvalue = [3, 0]"] ;
711 -> 729 ;
730 [label="numImages <= -0.2\ngini = 0.2\nsamples = 17\nvalue = [4, 24]"] ;
710 -> 730 ;
731 [label="host_length <= 0.8\ngini = 0.4\nsamples = 9\nvalue = [4, 12]"] ;
730 -> 731 ;
732 [label="specialCharacters <= 0.0\ngini = 0.5\nsamples = 5\nvalue = [4, 3]"] ;
731 -> 732 ;
733 [label="gini = 0.0\nsamples = 2\nvalue = [4, 0]"] ;
732 -> 733 ;
734 [label="gini = 0.0\nsamples = 3\nvalue = [0, 3]"] ;
732 -> 734 ;
735 [label="gini = 0.0\nsamples = 4\nvalue = [0, 9]"] ;
731 -> 735 ;
736 [label="gini = 0.0\nsamples = 8\nvalue = [0, 12]"] ;
730 -> 736 ;
737 [label="url_entropy <= 0.9\ngini = 0.5\nsamples = 7\nvalue = [5, 9]"] ;
699 -> 737 ;
738 [label="gini = 0.0\nsamples = 5\nvalue = [0, 9]"] ;
737 -> 738 ;
739 [label="gini = 0.0\nsamples = 2\nvalue = [5, 0]"] ;
737 -> 739 ;
740 [label="count_fragment <= 7.5\ngini = 0.4\nsamples = 99\nvalue = [101, 43]"] ;
654 -> 740 ;
741 [label="numLinks <= -0.4\ngini = 0.4\nsamples = 96\nvalue = [101, 36]"] ;
740 -> 741 ;
742 [label="is_https <= 0.2\ngini = 0.5\nsamples = 32\nvalue = [17, 25]"] ;
741 -> 742 ;
743 [label="host_length <= -0.5\ngini = 0.4\nsamples = 11\nvalue = [8, 4]"] ;
742 -> 743 ;
744 [label="gini = 0.0\nsamples = 4\nvalue = [0, 4]"] ;
743 -> 744 ;
745 [label="gini = 0.0\nsamples = 7\nvalue = [8, 0]"] ;
743 -> 745 ;
746 [label="num_. <= 0.0\ngini = 0.4\nsamples = 21\nvalue = [9, 21]"] ;
742 -> 746 ;
747 [label="url_length <= -0.2\ngini = 0.3\nsamples = 19\nvalue = [5, 21]"] ;
746 -> 747 ;
748 [label="months_since_creation <= 0.5\ngini = 0.5\nsamples = 9\nvalue = [5, 6]"] ;
747 -> 748 ;
749 [label="gini = 0.0\nsamples = 4\nvalue = [4, 0]"] ;
748 -> 749 ;
750 [label="body_length <= -0.3\ngini = 0.2\nsamples = 5\nvalue = [1, 6]"] ;
748 -> 750 ;
751 [label="gini = 0.0\nsamples = 1\nvalue = [1, 0]"] ;
750 -> 751 ;
752 [label="gini = 0.0\nsamples = 4\nvalue = [0, 6]"] ;
750 -> 752 ;
753 [label="gini = 0.0\nsamples = 10\nvalue = [0, 15]"] ;
747 -> 753 ;
754 [label="gini = 0.0\nsamples = 2\nvalue = [4, 0]"] ;
746 -> 754 ;
755 [label="tld_in_path <= 0.9\ngini = 0.2\nsamples = 64\nvalue = [84, 11]"] ;
741 -> 755 ;
756 [label="hostname_2length_ratio <= -1.0\ngini = 0.2\nsamples = 50\nvalue = [64, 10]"] ;
755 -> 756 ;
757 [label="num_. <= -0.7\ngini = 0.5\nsamples = 6\nvalue = [4, 7]"] ;
756 -> 757 ;
758 [label="num_redirects <= 0.1\ngini = 0.5\nsamples = 4\nvalue = [4, 4]"] ;
757 -> 758 ;
759 [label="script_length <= -0.2\ngini = 0.3\nsamples = 3\nvalue = [4, 1]"] ;
758 -> 759 ;
760 [label="gini = 0.0\nsamples = 1\nvalue = [0, 1]"] ;
759 -> 760 ;
761 [label="gini = 0.0\nsamples = 2\nvalue = [4, 0]"] ;
759 -> 761 ;
762 [label="gini = 0.0\nsamples = 1\nvalue = [0, 3]"] ;
758 -> 762 ;
763 [label="gini = 0.0\nsamples = 2\nvalue = [0, 3]"] ;
757 -> 763 ;
764 [label="body_length <= -0.3\ngini = 0.1\nsamples = 44\nvalue = [60, 3]"] ;
756 -> 764 ;
765 [label="gini = 0.0\nsamples = 22\nvalue = [31, 0]"] ;
764 -> 765 ;
766 [label="url_entropy <= 0.5\ngini = 0.2\nsamples = 22\nvalue = [29, 3]"] ;
764 -> 766 ;
767 [label="numLinks <= -0.3\ngini = 0.1\nsamples = 19\nvalue = [27, 1]"] ;
766 -> 767 ;
768 [label="gini = 0.0\nsamples = 1\nvalue = [0, 1]"] ;
767 -> 768 ;
769 [label="gini = 0.0\nsamples = 18\nvalue = [27, 0]"] ;
767 -> 769 ;
770 [label="script_length <= -0.2\ngini = 0.5\nsamples = 3\nvalue = [2, 2]"] ;
766 -> 770 ;
771 [label="gini = 0.0\nsamples = 1\nvalue = [0, 1]"] ;
770 -> 771 ;
772 [label="num_com <= -0.4\ngini = 0.4\nsamples = 2\nvalue = [2, 1]"] ;
770 -> 772 ;
773 [label="gini = 0.0\nsamples = 1\nvalue = [0, 1]"] ;
772 -> 773 ;
774 [label="gini = 0.0\nsamples = 1\nvalue = [2, 0]"] ;
772 -> 774 ;
775 [label="body_length <= -0.3\ngini = 0.1\nsamples = 14\nvalue = [20, 1]"] ;
755 -> 775 ;
776 [label="host_length <= -0.3\ngini = 0.5\nsamples = 2\nvalue = [1, 1]"] ;
775 -> 776 ;
777 [label="gini = 0.0\nsamples = 1\nvalue = [1, 0]"] ;
776 -> 777 ;
778 [label="gini = 0.0\nsamples = 1\nvalue = [0, 1]"] ;
776 -> 778 ;
779 [label="gini = 0.0\nsamples = 12\nvalue = [19, 0]"] ;
775 -> 779 ;
780 [label="gini = 0.0\nsamples = 3\nvalue = [0, 7]"] ;
740 -> 780 ;
781 [label="num_com <= -0.4\ngini = 0.3\nsamples = 23\nvalue = [25, 7]"] ;
611 -> 781 ;
782 [label="numLinks <= -0.3\ngini = 0.5\nsamples = 8\nvalue = [6, 6]"] ;
781 -> 782 ;
783 [label="months_since_creation <= 0.2\ngini = 0.4\nsamples = 6\nvalue = [3, 6]"] ;
782 -> 783 ;
784 [label="script_length <= -0.2\ngini = 0.2\nsamples = 4\nvalue = [1, 6]"] ;
783 -> 784 ;
785 [label="gini = 0.0\nsamples = 1\nvalue = [1, 0]"] ;
784 -> 785 ;
786 [label="gini = 0.0\nsamples = 3\nvalue = [0, 6]"] ;
784 -> 786 ;
787 [label="gini = 0.0\nsamples = 2\nvalue = [2, 0]"] ;
783 -> 787 ;
788 [label="gini = 0.0\nsamples = 2\nvalue = [3, 0]"] ;
782 -> 788 ;
789 [label="num_. <= 0.0\ngini = 0.1\nsamples = 15\nvalue = [19, 1]"] ;
781 -> 789 ;
790 [label="gini = 0.0\nsamples = 12\nvalue = [16, 0]"] ;
789 -> 790 ;
791 [label="script_length <= -0.2\ngini = 0.4\nsamples = 3\nvalue = [3, 1]"] ;
789 -> 791 ;
792 [label="gini = 0.0\nsamples = 2\nvalue = [3, 0]"] ;
791 -> 792 ;
793 [label="gini = 0.0\nsamples = 1\nvalue = [0, 1]"] ;
791 -> 793 ;
794 [label="scriptBodyRatio <= -0.1\ngini = 0.2\nsamples = 322\nvalue = [463, 59]"] ;
586 -> 794 ;
795 [label="url_entropy <= -2.5\ngini = 0.3\nsamples = 160\nvalue = [211, 42]"] ;
794 -> 795 ;
796 [label="numImages <= 0.1\ngini = 0.3\nsamples = 3\nvalue = [1, 5]"] ;
795 -> 796 ;
797 [label="gini = 0.0\nsamples = 2\nvalue = [0, 5]"] ;
796 -> 797 ;
798 [label="gini = 0.0\nsamples = 1\nvalue = [1, 0]"] ;
796 -> 798 ;
799 [label="scriptBodyRatio <= -0.1\ngini = 0.3\nsamples = 157\nvalue = [210, 37]"] ;
795 -> 799 ;
800 [label="numLinks <= -0.2\ngini = 0.2\nsamples = 153\nvalue = [210, 31]"] ;
799 -> 800 ;
801 [label="host_length <= -0.6\ngini = 0.2\nsamples = 150\nvalue = [206, 26]"] ;
800 -> 801 ;
802 [label="num_digits <= -0.6\ngini = 0.4\nsamples = 24\nvalue = [24, 9]"] ;
801 -> 802 ;
803 [label="gini = 0.0\nsamples = 11\nvalue = [16, 0]"] ;
802 -> 803 ;
804 [label="open_page_rank <= 0.8\ngini = 0.5\nsamples = 13\nvalue = [8, 9]"] ;
802 -> 804 ;
805 [label="num_digits <= 0.3\ngini = 0.3\nsamples = 9\nvalue = [2, 9]"] ;
804 -> 805 ;
806 [label="url_length <= -0.3\ngini = 0.2\nsamples = 7\nvalue = [1, 8]"] ;
805 -> 806 ;
807 [label="open_page_rank <= 0.4\ngini = 0.4\nsamples = 3\nvalue = [1, 3]"] ;
806 -> 807 ;
808 [label="gini = 0.0\nsamples = 2\nvalue = [0, 3]"] ;
807 -> 808 ;
809 [label="gini = 0.0\nsamples = 1\nvalue = [1, 0]"] ;
807 -> 809 ;
810 [label="gini = 0.0\nsamples = 4\nvalue = [0, 5]"] ;
806 -> 810 ;
811 [label="num_redirects <= 0.8\ngini = 0.5\nsamples = 2\nvalue = [1, 1]"] ;
805 -> 811 ;
812 [label="gini = 0.0\nsamples = 1\nvalue = [1, 0]"] ;
811 -> 812 ;
813 [label="gini = 0.0\nsamples = 1\nvalue = [0, 1]"] ;
811 -> 813 ;
814 [label="gini = 0.0\nsamples = 4\nvalue = [6, 0]"] ;
804 -> 814 ;
815 [label="body_length <= -0.2\ngini = 0.2\nsamples = 126\nvalue = [182, 17]"] ;
801 -> 815 ;
816 [label="url_length <= 0.0\ngini = 0.1\nsamples = 65\nvalue = [99, 4]"] ;
815 -> 816 ;
817 [label="body_length <= -0.3\ngini = 0.0\nsamples = 56\nvalue = [85, 2]"] ;
816 -> 817 ;
818 [label="numImages <= -0.2\ngini = 0.2\nsamples = 6\nvalue = [7, 1]"] ;
817 -> 818 ;
819 [label="numLinks <= -0.4\ngini = 0.3\nsamples = 4\nvalue = [5, 1]"] ;
818 -> 819 ;
820 [label="gini = 0.0\nsamples = 2\nvalue = [4, 0]"] ;
819 -> 820 ;
821 [label="num_digits <= -0.3\ngini = 0.5\nsamples = 2\nvalue = [1, 1]"] ;
819 -> 821 ;
822 [label="gini = 0.0\nsamples = 1\nvalue = [0, 1]"] ;
821 -> 822 ;
823 [label="gini = 0.0\nsamples = 1\nvalue = [1, 0]"] ;
821 -> 823 ;
824 [label="gini = 0.0\nsamples = 2\nvalue = [2, 0]"] ;
818 -> 824 ;
825 [label="numImages <= 0.0\ngini = 0.0\nsamples = 50\nvalue = [78, 1]"] ;
817 -> 825 ;
826 [label="gini = 0.0\nsamples = 46\nvalue = [74, 0]"] ;
825 -> 826 ;
827 [label="script_length <= -0.2\ngini = 0.3\nsamples = 4\nvalue = [4, 1]"] ;
825 -> 827 ;
828 [label="gini = 0.0\nsamples = 3\nvalue = [4, 0]"] ;
827 -> 828 ;
829 [label="gini = 0.0\nsamples = 1\nvalue = [0, 1]"] ;
827 -> 829 ;
830 [label="num_digits <= 0.0\ngini = 0.2\nsamples = 9\nvalue = [14, 2]"] ;
816 -> 830 ;
831 [label="gini = 0.0\nsamples = 1\nvalue = [0, 2]"] ;
830 -> 831 ;
832 [label="gini = 0.0\nsamples = 8\nvalue = [14, 0]"] ;
830 -> 832 ;
833 [label="months_since_creation <= -0.2\ngini = 0.2\nsamples = 61\nvalue = [83, 13]"] ;
815 -> 833 ;
834 [label="url_length <= -0.6\ngini = 0.5\nsamples = 19\nvalue = [14, 11]"] ;
833 -> 834 ;
835 [label="gini = 0.0\nsamples = 5\nvalue = [6, 0]"] ;
834 -> 835 ;
836 [label="numImages <= -0.0\ngini = 0.5\nsamples = 14\nvalue = [8, 11]"] ;
834 -> 836 ;
837 [label="num_digits <= -0.3\ngini = 0.5\nsamples = 10\nvalue = [8, 6]"] ;
836 -> 837 ;
838 [label="open_page_rank <= 0.4\ngini = 0.2\nsamples = 6\nvalue = [1, 6]"] ;
837 -> 838 ;
839 [label="gini = 0.0\nsamples = 4\nvalue = [0, 4]"] ;
838 -> 839 ;
840 [label="is_https <= 0.2\ngini = 0.4\nsamples = 2\nvalue = [1, 2]"] ;
838 -> 840 ;
841 [label="gini = 0.0\nsamples = 1\nvalue = [0, 2]"] ;
840 -> 841 ;
842 [label="gini = 0.0\nsamples = 1\nvalue = [1, 0]"] ;
840 -> 842 ;
843 [label="gini = 0.0\nsamples = 4\nvalue = [7, 0]"] ;
837 -> 843 ;
844 [label="gini = 0.0\nsamples = 4\nvalue = [0, 5]"] ;
836 -> 844 ;
845 [label="num_/ <= 0.1\ngini = 0.1\nsamples = 42\nvalue = [69, 2]"] ;
833 -> 845 ;
846 [label="num_. <= 0.0\ngini = 0.1\nsamples = 35\nvalue = [60, 2]"] ;
845 -> 846 ;
847 [label="months_since_creation <= 0.8\ngini = 0.1\nsamples = 23\nvalue = [39, 2]"] ;
846 -> 847 ;
848 [label="gini = 0.0\nsamples = 15\nvalue = [27, 0]"] ;
847 -> 848 ;
849 [label="script_length <= -0.2\ngini = 0.2\nsamples = 8\nvalue = [12, 2]"] ;
847 -> 849 ;
850 [label="gini = 0.0\nsamples = 4\nvalue = [8, 0]"] ;
849 -> 850 ;
851 [label="numLinks <= -0.3\ngini = 0.4\nsamples = 4\nvalue = [4, 2]"] ;
849 -> 851 ;
852 [label="gini = 0.0\nsamples = 2\nvalue = [0, 2]"] ;
851 -> 852 ;
853 [label="gini = 0.0\nsamples = 2\nvalue = [4, 0]"] ;
851 -> 853 ;
854 [label="gini = 0.0\nsamples = 12\nvalue = [21, 0]"] ;
846 -> 854 ;
855 [label="gini = 0.0\nsamples = 7\nvalue = [9, 0]"] ;
845 -> 855 ;
856 [label="url_length <= 0.2\ngini = 0.5\nsamples = 3\nvalue = [4, 5]"] ;
800 -> 856 ;
857 [label="gini = 0.0\nsamples = 2\nvalue = [4, 0]"] ;
856 -> 857 ;
858 [label="gini = 0.0\nsamples = 1\nvalue = [0, 5]"] ;
856 -> 858 ;
859 [label="gini = 0.0\nsamples = 4\nvalue = [0, 6]"] ;
799 -> 859 ;
860 [label="num_. <= 2.2\ngini = 0.1\nsamples = 162\nvalue = [252, 17]"] ;
794 -> 860 ;
861 [label="num_/ <= 1.2\ngini = 0.1\nsamples = 161\nvalue = [252, 16]"] ;
860 -> 861 ;
862 [label="num_www <= 2.1\ngini = 0.1\nsamples = 159\nvalue = [251, 14]"] ;
861 -> 862 ;
863 [label="url_length <= -0.0\ngini = 0.1\nsamples = 158\nvalue = [251, 13]"] ;
862 -> 863 ;
864 [label="url_length <= -0.1\ngini = 0.1\nsamples = 127\nvalue = [200, 13]"] ;
863 -> 864 ;
865 [label="url_entropy <= -0.5\ngini = 0.1\nsamples = 123\nvalue = [196, 11]"] ;
864 -> 865 ;
866 [label="num_/ <= -1.0\ngini = 0.0\nsamples = 57\nvalue = [93, 1]"] ;
865 -> 866 ;
867 [label="scriptBodyRatio <= 1.3\ngini = 0.2\nsamples = 4\nvalue = [6, 1]"] ;
866 -> 867 ;
868 [label="gini = 0.0\nsamples = 3\nvalue = [6, 0]"] ;
867 -> 868 ;
869 [label="gini = 0.0\nsamples = 1\nvalue = [0, 1]"] ;
867 -> 869 ;
870 [label="gini = 0.0\nsamples = 53\nvalue = [87, 0]"] ;
866 -> 870 ;
871 [label="specialCharacters <= -0.1\ngini = 0.2\nsamples = 66\nvalue = [103, 10]"] ;
865 -> 871 ;
872 [label="body_length <= -0.3\ngini = 0.1\nsamples = 46\nvalue = [74, 4]"] ;
871 -> 872 ;
873 [label="body_length <= -0.3\ngini = 0.2\nsamples = 12\nvalue = [16, 2]"] ;
872 -> 873 ;
874 [label="gini = 0.0\nsamples = 10\nvalue = [16, 0]"] ;
873 -> 874 ;
875 [label="gini = 0.0\nsamples = 2\nvalue = [0, 2]"] ;
873 -> 875 ;
876 [label="num_digits <= -0.7\ngini = 0.1\nsamples = 34\nvalue = [58, 2]"] ;
872 -> 876 ;
877 [label="url_entropy <= -0.4\ngini = 0.3\nsamples = 2\nvalue = [4, 1]"] ;
876 -> 877 ;
878 [label="gini = 0.0\nsamples = 1\nvalue = [4, 0]"] ;
877 -> 878 ;
879 [label="gini = 0.0\nsamples = 1\nvalue = [0, 1]"] ;
877 -> 879 ;
880 [label="numLinks <= -0.2\ngini = 0.0\nsamples = 32\nvalue = [54, 1]"] ;
876 -> 880 ;
881 [label="gini = 0.0\nsamples = 31\nvalue = [54, 0]"] ;
880 -> 881 ;
882 [label="gini = 0.0\nsamples = 1\nvalue = [0, 1]"] ;
880 -> 882 ;
883 [label="url_length <= -0.5\ngini = 0.3\nsamples = 20\nvalue = [29, 6]"] ;
871 -> 883 ;
884 [label="num_digits <= -0.5\ngini = 0.1\nsamples = 17\nvalue = [29, 1]"] ;
883 -> 884 ;
885 [label="gini = 0.0\nsamples = 14\nvalue = [25, 0]"] ;
884 -> 885 ;
886 [label="numLinks <= -0.3\ngini = 0.3\nsamples = 3\nvalue = [4, 1]"] ;
884 -> 886 ;
887 [label="gini = 0.0\nsamples = 1\nvalue = [0, 1]"] ;
886 -> 887 ;
888 [label="gini = 0.0\nsamples = 2\nvalue = [4, 0]"] ;
886 -> 888 ;
889 [label="gini = 0.0\nsamples = 3\nvalue = [0, 5]"] ;
883 -> 889 ;
890 [label="num_/ <= -0.2\ngini = 0.4\nsamples = 4\nvalue = [4, 2]"] ;
864 -> 890 ;
891 [label="specialCharacters <= -0.3\ngini = 0.4\nsamples = 3\nvalue = [1, 2]"] ;
890 -> 891 ;
892 [label="gini = 0.0\nsamples = 1\nvalue = [1, 0]"] ;
891 -> 892 ;
893 [label="gini = 0.0\nsamples = 2\nvalue = [0, 2]"] ;
891 -> 893 ;
894 [label="gini = 0.0\nsamples = 1\nvalue = [3, 0]"] ;
890 -> 894 ;
895 [label="gini = 0.0\nsamples = 31\nvalue = [51, 0]"] ;
863 -> 895 ;
896 [label="gini = 0.0\nsamples = 1\nvalue = [0, 1]"] ;
862 -> 896 ;
897 [label="hostname_2length_ratio <= -1.3\ngini = 0.4\nsamples = 2\nvalue = [1, 2]"] ;
861 -> 897 ;
898 [label="gini = 0.0\nsamples = 1\nvalue = [0, 2]"] ;
897 -> 898 ;
899 [label="gini = 0.0\nsamples = 1\nvalue = [1, 0]"] ;
897 -> 899 ;
900 [label="gini = 0.0\nsamples = 1\nvalue = [0, 1]"] ;
860 -> 900 ;
901 [label="url_entropy <= -1.1\ngini = 0.1\nsamples = 14\nvalue = [1, 19]"] ;
585 -> 901 ;
902 [label="gini = 0.0\nsamples = 1\nvalue = [1, 0]"] ;
901 -> 902 ;
903 [label="gini = 0.0\nsamples = 13\nvalue = [0, 19]"] ;
901 -> 903 ;
904 [label="scriptBodyRatio <= -0.1\ngini = 0.2\nsamples = 36\nvalue = [6, 48]"] ;
584 -> 904 ;
905 [label="num_. <= 0.0\ngini = 0.5\nsamples = 10\nvalue = [6, 6]"] ;
904 -> 905 ;
906 [label="gini = 0.0\nsamples = 3\nvalue = [0, 4]"] ;
905 -> 906 ;
907 [label="script_length <= -0.2\ngini = 0.4\nsamples = 7\nvalue = [6, 2]"] ;
905 -> 907 ;
908 [label="gini = 0.0\nsamples = 2\nvalue = [0, 2]"] ;
907 -> 908 ;
909 [label="gini = 0.0\nsamples = 5\nvalue = [6, 0]"] ;
907 -> 909 ;
910 [label="gini = 0.0\nsamples = 26\nvalue = [0, 42]"] ;
904 -> 910 ;
911 [label="months_since_creation <= 0.5\ngini = 0.1\nsamples = 190\nvalue = [17, 275]"] ;
583 -> 911 ;
912 [label="num_= <= 0.2\ngini = 0.1\nsamples = 140\nvalue = [6, 208]"] ;
911 -> 912 ;
913 [label="numImages <= -0.0\ngini = 0.0\nsamples = 139\nvalue = [5, 208]"] ;
912 -> 913 ;
914 [label="open_page_rank <= 0.8\ngini = 0.0\nsamples = 136\nvalue = [3, 206]"] ;
913 -> 914 ;
915 [label="tld_in_path <= 0.9\ngini = 0.0\nsamples = 135\nvalue = [2, 206]"] ;
914 -> 915 ;
916 [label="specialCharacters <= -0.3\ngini = 0.0\nsamples = 101\nvalue = [2, 147]"] ;
915 -> 916 ;
917 [label="host_length <= 0.2\ngini = 0.1\nsamples = 49\nvalue = [2, 64]"] ;
916 -> 917 ;
918 [label="gini = 0.0\nsamples = 40\nvalue = [0, 54]"] ;
917 -> 918 ;
919 [label="months_since_creation <= -1.1\ngini = 0.3\nsamples = 9\nvalue = [2, 10]"] ;
917 -> 919 ;
920 [label="open_page_rank <= -0.8\ngini = 0.4\nsamples = 5\nvalue = [2, 4]"] ;
919 -> 920 ;
921 [label="gini = 0.0\nsamples = 3\nvalue = [0, 4]"] ;
920 -> 921 ;
922 [label="gini = 0.0\nsamples = 2\nvalue = [2, 0]"] ;
920 -> 922 ;
923 [label="gini = 0.0\nsamples = 4\nvalue = [0, 6]"] ;
919 -> 923 ;
924 [label="gini = 0.0\nsamples = 52\nvalue = [0, 83]"] ;
916 -> 924 ;
925 [label="gini = 0.0\nsamples = 34\nvalue = [0, 59]"] ;
915 -> 925 ;
926 [label="gini = 0.0\nsamples = 1\nvalue = [1, 0]"] ;
914 -> 926 ;
927 [label="scriptBodyRatio <= -0.1\ngini = 0.5\nsamples = 3\nvalue = [2, 2]"] ;
913 -> 927 ;
928 [label="gini = 0.0\nsamples = 1\nvalue = [2, 0]"] ;
927 -> 928 ;
929 [label="gini = 0.0\nsamples = 2\nvalue = [0, 2]"] ;
927 -> 929 ;
930 [label="gini = 0.0\nsamples = 1\nvalue = [1, 0]"] ;
912 -> 930 ;
931 [label="open_page_rank <= 1.6\ngini = 0.2\nsamples = 50\nvalue = [11, 67]"] ;
911 -> 931 ;
932 [label="specialCharacters <= -0.3\ngini = 0.5\nsamples = 19\nvalue = [10, 18]"] ;
931 -> 932 ;
933 [label="open_page_rank <= 0.4\ngini = 0.3\nsamples = 12\nvalue = [4, 14]"] ;
932 -> 933 ;
934 [label="gini = 0.0\nsamples = 8\nvalue = [0, 13]"] ;
933 -> 934 ;
935 [label="host_length <= 0.0\ngini = 0.3\nsamples = 4\nvalue = [4, 1]"] ;
933 -> 935 ;
936 [label="gini = 0.0\nsamples = 3\nvalue = [4, 0]"] ;
935 -> 936 ;
937 [label="gini = 0.0\nsamples = 1\nvalue = [0, 1]"] ;
935 -> 937 ;
938 [label="numImages <= -0.1\ngini = 0.5\nsamples = 7\nvalue = [6, 4]"] ;
932 -> 938 ;
939 [label="count_fragment <= 7.5\ngini = 0.4\nsamples = 5\nvalue = [6, 2]"] ;
938 -> 939 ;
940 [label="gini = 0.0\nsamples = 4\nvalue = [6, 0]"] ;
939 -> 940 ;
941 [label="gini = 0.0\nsamples = 1\nvalue = [0, 2]"] ;
939 -> 941 ;
942 [label="gini = 0.0\nsamples = 2\nvalue = [0, 2]"] ;
938 -> 942 ;
943 [label="scriptBodyRatio <= -0.0\ngini = 0.0\nsamples = 31\nvalue = [1, 49]"] ;
931 -> 943 ;
944 [label="num_. <= 0.0\ngini = 0.3\nsamples = 3\nvalue = [1, 5]"] ;
943 -> 944 ;
945 [label="gini = 0.0\nsamples = 2\nvalue = [0, 5]"] ;
944 -> 945 ;
946 [label="gini = 0.0\nsamples = 1\nvalue = [1, 0]"] ;
944 -> 946 ;
947 [label="gini = 0.0\nsamples = 28\nvalue = [0, 44]"] ;
943 -> 947 ;
948 [label="phish_hints <= 1.6\ngini = 0.1\nsamples = 2225\nvalue = [3300, 250]"] ;
582 -> 948 ;
949 [label="sus_extension_type <= 1.9\ngini = 0.1\nsamples = 2195\nvalue = [3299, 211]"] ;
948 -> 949 ;
950 [label="url_entropy <= 0.8\ngini = 0.1\nsamples = 2149\nvalue = [3269, 172]"] ;
949 -> 950 ;
951 [label="specialCharacters <= -0.3\ngini = 0.1\nsamples = 1994\nvalue = [3048, 140]"] ;
950 -> 951 ;
952 [label="num_& <= 1.0\ngini = 0.2\nsamples = 274\nvalue = [379, 45]"] ;
951 -> 952 ;
953 [label="is_https <= 0.2\ngini = 0.2\nsamples = 271\nvalue = [379, 40]"] ;
952 -> 953 ;
954 [label="num_redirects <= 0.1\ngini = 0.3\nsamples = 163\nvalue = [210, 37]"] ;
953 -> 954 ;
955 [label="open_page_rank <= -0.4\ngini = 0.2\nsamples = 55\nvalue = [76, 12]"] ;
954 -> 955 ;
956 [label="num_com <= -0.4\ngini = 0.4\nsamples = 7\nvalue = [3, 9]"] ;
955 -> 956 ;
957 [label="url_entropy <= -0.6\ngini = 0.3\nsamples = 3\nvalue = [1, 5]"] ;
956 -> 957 ;
958 [label="gini = 0.0\nsamples = 1\nvalue = [1, 0]"] ;
957 -> 958 ;
959 [label="gini = 0.0\nsamples = 2\nvalue = [0, 5]"] ;
957 -> 959 ;
960 [label="open_page_rank <= -0.8\ngini = 0.4\nsamples = 4\nvalue = [2, 4]"] ;
956 -> 960 ;
961 [label="hostname_2length_ratio <= 0.4\ngini = 0.3\nsamples = 3\nvalue = [1, 4]"] ;
960 -> 961 ;
962 [label="gini = 0.0\nsamples = 2\nvalue = [0, 4]"] ;
961 -> 962 ;
963 [label="gini = 0.0\nsamples = 1\nvalue = [1, 0]"] ;
961 -> 963 ;
964 [label="gini = 0.0\nsamples = 1\nvalue = [1, 0]"] ;
960 -> 964 ;
965 [label="url_entropy <= -1.2\ngini = 0.1\nsamples = 48\nvalue = [73, 3]"] ;
955 -> 965 ;
966 [label="script_length <= -0.2\ngini = 0.4\nsamples = 3\nvalue = [3, 1]"] ;
965 -> 966 ;
967 [label="gini = 0.0\nsamples = 2\nvalue = [3, 0]"] ;
966 -> 967 ;
968 [label="gini = 0.0\nsamples = 1\nvalue = [0, 1]"] ;
966 -> 968 ;
969 [label="months_since_creation <= -1.0\ngini = 0.1\nsamples = 45\nvalue = [70, 2]"] ;
965 -> 969 ;
970 [label="specialCharacters <= -0.3\ngini = 0.2\nsamples = 9\nvalue = [15, 2]"] ;
969 -> 970 ;
971 [label="gini = 0.0\nsamples = 8\nvalue = [15, 0]"] ;
970 -> 971 ;
972 [label="gini = 0.0\nsamples = 1\nvalue = [0, 2]"] ;
970 -> 972 ;
973 [label="gini = 0.0\nsamples = 36\nvalue = [55, 0]"] ;
969 -> 973 ;
974 [label="months_since_creation <= 1.1\ngini = 0.3\nsamples = 108\nvalue = [134, 25]"] ;
954 -> 974 ;
975 [label="hostname_2length_ratio <= 1.3\ngini = 0.3\nsamples = 86\nvalue = [103, 25]"] ;
974 -> 975 ;
976 [label="open_page_rank <= -0.8\ngini = 0.2\nsamples = 74\nvalue = [94, 14]"] ;
975 -> 976 ;
977 [label="num_. <= -0.7\ngini = 0.4\nsamples = 5\nvalue = [3, 7]"] ;
976 -> 977 ;
978 [label="gini = 0.0\nsamples = 1\nvalue = [3, 0]"] ;
977 -> 978 ;
979 [label="gini = 0.0\nsamples = 4\nvalue = [0, 7]"] ;
977 -> 979 ;
980 [label="num_- <= -0.2\ngini = 0.1\nsamples = 69\nvalue = [91, 7]"] ;
976 -> 980 ;
981 [label="hostname_2length_ratio <= -1.5\ngini = 0.2\nsamples = 51\nvalue = [66, 7]"] ;
980 -> 981 ;
982 [label="gini = 0.0\nsamples = 1\nvalue = [0, 3]"] ;
981 -> 982 ;
983 [label="tld_in_path <= 0.9\ngini = 0.1\nsamples = 50\nvalue = [66, 4]"] ;
981 -> 983 ;
984 [label="url_length <= 0.0\ngini = 0.0\nsamples = 40\nvalue = [55, 1]"] ;
983 -> 984 ;
985 [label="gini = 0.0\nsamples = 39\nvalue = [55, 0]"] ;
984 -> 985 ;
986 [label="gini = 0.0\nsamples = 1\nvalue = [0, 1]"] ;
984 -> 986 ;
987 [label="url_length <= -0.4\ngini = 0.3\nsamples = 10\nvalue = [11, 3]"] ;
983 -> 987 ;
988 [label="gini = 0.0\nsamples = 1\nvalue = [0, 2]"] ;
987 -> 988 ;
989 [label="url_length <= 0.3\ngini = 0.2\nsamples = 9\nvalue = [11, 1]"] ;
987 -> 989 ;
990 [label="gini = 0.0\nsamples = 8\nvalue = [11, 0]"] ;
989 -> 990 ;
991 [label="gini = 0.0\nsamples = 1\nvalue = [0, 1]"] ;
989 -> 991 ;
992 [label="gini = 0.0\nsamples = 18\nvalue = [25, 0]"] ;
980 -> 992 ;
993 [label="num_redirects <= 1.6\ngini = 0.5\nsamples = 12\nvalue = [9, 11]"] ;
975 -> 993 ;
994 [label="num_- <= -0.2\ngini = 0.5\nsamples = 10\nvalue = [6, 11]"] ;
993 -> 994 ;
995 [label="script_length <= -0.2\ngini = 0.5\nsamples = 8\nvalue = [5, 9]"] ;
994 -> 995 ;
996 [label="gini = 0.0\nsamples = 3\nvalue = [5, 0]"] ;
995 -> 996 ;
997 [label="gini = 0.0\nsamples = 5\nvalue = [0, 9]"] ;
995 -> 997 ;
998 [label="num_/ <= -1.0\ngini = 0.4\nsamples = 2\nvalue = [1, 2]"] ;
994 -> 998 ;
999 [label="gini = 0.0\nsamples = 1\nvalue = [1, 0]"] ;
998 -> 999 ;
1000 [label="gini = 0.0\nsamples = 1\nvalue = [0, 2]"] ;
998 -> 1000 ;
1001 [label="gini = 0.0\nsamples = 2\nvalue = [3, 0]"] ;
993 -> 1001 ;
1002 [label="gini = 0.0\nsamples = 22\nvalue = [31, 0]"] ;
974 -> 1002 ;
1003 [label="hostname_2length_ratio <= 1.4\ngini = 0.0\nsamples = 108\nvalue = [169, 3]"] ;
953 -> 1003 ;
1004 [label="body_length <= -0.3\ngini = 0.0\nsamples = 104\nvalue = [166, 1]"] ;
1003 -> 1004 ;
1005 [label="months_since_creation <= -0.8\ngini = 0.1\nsamples = 13\nvalue = [18, 1]"] ;
1004 -> 1005 ;
1006 [label="gini = 0.0\nsamples = 1\nvalue = [0, 1]"] ;
1005 -> 1006 ;
1007 [label="gini = 0.0\nsamples = 12\nvalue = [18, 0]"] ;
1005 -> 1007 ;
1008 [label="gini = 0.0\nsamples = 91\nvalue = [148, 0]"] ;
1004 -> 1008 ;
1009 [label="numImages <= -0.1\ngini = 0.5\nsamples = 4\nvalue = [3, 2]"] ;
1003 -> 1009 ;
1010 [label="gini = 0.0\nsamples = 1\nvalue = [0, 2]"] ;
1009 -> 1010 ;
1011 [label="gini = 0.0\nsamples = 3\nvalue = [3, 0]"] ;
1009 -> 1011 ;
1012 [label="gini = 0.0\nsamples = 3\nvalue = [0, 5]"] ;
952 -> 1012 ;
1013 [label="open_page_rank <= 0.0\ngini = 0.1\nsamples = 1720\nvalue = [2669, 95]"] ;
951 -> 1013 ;
1014 [label="num_digits <= -0.5\ngini = 0.3\nsamples = 236\nvalue = [323, 73]"] ;
1013 -> 1014 ;
1015 [label="num_. <= -0.7\ngini = 0.2\nsamples = 155\nvalue = [239, 26]"] ;
1014 -> 1015 ;
1016 [label="phish_hints <= 0.3\ngini = 0.4\nsamples = 37\nvalue = [39, 20]"] ;
1015 -> 1016 ;
1017 [label="num_/ <= -1.0\ngini = 0.4\nsamples = 34\nvalue = [37, 16]"] ;
1016 -> 1017 ;
1018 [label="numImages <= -0.0\ngini = 0.1\nsamples = 16\nvalue = [25, 2]"] ;
1017 -> 1018 ;
1019 [label="open_page_rank <= -0.8\ngini = 0.3\nsamples = 5\nvalue = [9, 2]"] ;
1018 -> 1019 ;
1020 [label="gini = 0.0\nsamples = 1\nvalue = [0, 2]"] ;
1019 -> 1020 ;
1021 [label="gini = 0.0\nsamples = 4\nvalue = [9, 0]"] ;
1019 -> 1021 ;
1022 [label="gini = 0.0\nsamples = 11\nvalue = [16, 0]"] ;
1018 -> 1022 ;
1023 [label="url_length <= -0.7\ngini = 0.5\nsamples = 18\nvalue = [12, 14]"] ;
1017 -> 1023 ;
1024 [label="open_page_rank <= -0.6\ngini = 0.4\nsamples = 10\nvalue = [11, 4]"] ;
1023 -> 1024 ;
1025 [label="gini = 0.0\nsamples = 2\nvalue = [0, 4]"] ;
1024 -> 1025 ;
1026 [label="gini = 0.0\nsamples = 8\nvalue = [11, 0]"] ;
1024 -> 1026 ;
1027 [label="num_redirects <= 0.1\ngini = 0.2\nsamples = 8\nvalue = [1, 10]"] ;
1023 -> 1027 ;
1028 [label="gini = 0.0\nsamples = 1\nvalue = [0, 2]"] ;
1027 -> 1028 ;
1029 [label="numLinks <= 0.0\ngini = 0.2\nsamples = 7\nvalue = [1, 8]"] ;
1027 -> 1029 ;
1030 [label="gini = 0.0\nsamples = 3\nvalue = [0, 4]"] ;
1029 -> 1030 ;
1031 [label="numImages <= 0.0\ngini = 0.3\nsamples = 4\nvalue = [1, 4]"] ;
1029 -> 1031 ;
1032 [label="gini = 0.0\nsamples = 1\nvalue = [1, 0]"] ;
1031 -> 1032 ;
1033 [label="gini = 0.0\nsamples = 3\nvalue = [0, 4]"] ;
1031 -> 1033 ;
1034 [label="numImages <= 0.2\ngini = 0.4\nsamples = 3\nvalue = [2, 4]"] ;
1016 -> 1034 ;
1035 [label="gini = 0.0\nsamples = 1\nvalue = [2, 0]"] ;
1034 -> 1035 ;
1036 [label="gini = 0.0\nsamples = 2\nvalue = [0, 4]"] ;
1034 -> 1036 ;
1037 [label="numLinks <= 0.2\ngini = 0.1\nsamples = 118\nvalue = [200, 6]"] ;
1015 -> 1037 ;
1038 [label="months_since_creation <= -0.8\ngini = 0.1\nsamples = 47\nvalue = [83, 6]"] ;
1037 -> 1038 ;
1039 [label="body_length <= 0.0\ngini = 0.4\nsamples = 15\nvalue = [19, 6]"] ;
1038 -> 1039 ;
1040 [label="open_page_rank <= -0.8\ngini = 0.2\nsamples = 11\nvalue = [17, 2]"] ;
1039 -> 1040 ;
1041 [label="num_digits <= -0.6\ngini = 0.5\nsamples = 3\nvalue = [3, 2]"] ;
1040 -> 1041 ;
1042 [label="gini = 0.0\nsamples = 2\nvalue = [3, 0]"] ;
1041 -> 1042 ;
1043 [label="gini = 0.0\nsamples = 1\nvalue = [0, 2]"] ;
1041 -> 1043 ;
1044 [label="gini = 0.0\nsamples = 8\nvalue = [14, 0]"] ;
1040 -> 1044 ;
1045 [label="num_digits <= -0.7\ngini = 0.4\nsamples = 4\nvalue = [2, 4]"] ;
1039 -> 1045 ;
1046 [label="gini = 0.0\nsamples = 2\nvalue = [2, 0]"] ;
1045 -> 1046 ;
1047 [label="gini = 0.0\nsamples = 2\nvalue = [0, 4]"] ;
1045 -> 1047 ;
1048 [label="gini = 0.0\nsamples = 32\nvalue = [64, 0]"] ;
1038 -> 1048 ;
1049 [label="gini = 0.0\nsamples = 71\nvalue = [117, 0]"] ;
1037 -> 1049 ;
1050 [label="host_length <= -0.2\ngini = 0.5\nsamples = 81\nvalue = [84, 47]"] ;
1014 -> 1050 ;
1051 [label="numImages <= -0.2\ngini = 0.5\nsamples = 34\nvalue = [17, 32]"] ;
1050 -> 1051 ;
1052 [label="gini = 0.0\nsamples = 5\nvalue = [0, 8]"] ;
1051 -> 1052 ;
1053 [label="months_since_creation <= -0.6\ngini = 0.5\nsamples = 29\nvalue = [17, 24]"] ;
1051 -> 1053 ;
1054 [label="specialCharacters <= -0.2\ngini = 0.1\nsamples = 13\nvalue = [1, 13]"] ;
1053 -> 1054 ;
1055 [label="num_- <= 2.9\ngini = 0.3\nsamples = 5\nvalue = [1, 4]"] ;
1054 -> 1055 ;
1056 [label="gini = 0.0\nsamples = 4\nvalue = [0, 4]"] ;
1055 -> 1056 ;
1057 [label="gini = 0.0\nsamples = 1\nvalue = [1, 0]"] ;
1055 -> 1057 ;
1058 [label="gini = 0.0\nsamples = 8\nvalue = [0, 9]"] ;
1054 -> 1058 ;
1059 [label="numLinks <= -0.2\ngini = 0.5\nsamples = 16\nvalue = [16, 11]"] ;
1053 -> 1059 ;
1060 [label="gini = 0.0\nsamples = 2\nvalue = [0, 3]"] ;
1059 -> 1060 ;
1061 [label="hostname_2length_ratio <= -0.8\ngini = 0.4\nsamples = 14\nvalue = [16, 8]"] ;
1059 -> 1061 ;
1062 [label="gini = 0.0\nsamples = 6\nvalue = [9, 0]"] ;
1061 -> 1062 ;
1063 [label="num_digits <= -0.5\ngini = 0.5\nsamples = 8\nvalue = [7, 8]"] ;
1061 -> 1063 ;
1064 [label="script_length <= -0.2\ngini = 0.2\nsamples = 4\nvalue = [1, 8]"] ;
1063 -> 1064 ;
1065 [label="gini = 0.0\nsamples = 1\nvalue = [1, 0]"] ;
1064 -> 1065 ;
1066 [label="gini = 0.0\nsamples = 3\nvalue = [0, 8]"] ;
1064 -> 1066 ;
1067 [label="gini = 0.0\nsamples = 4\nvalue = [6, 0]"] ;
1063 -> 1067 ;
1068 [label="numImages <= 0.1\ngini = 0.3\nsamples = 47\nvalue = [67, 15]"] ;
1050 -> 1068 ;
1069 [label="open_page_rank <= -0.4\ngini = 0.4\nsamples = 31\nvalue = [36, 15]"] ;
1068 -> 1069 ;
1070 [label="url_entropy <= 0.4\ngini = 0.5\nsamples = 14\nvalue = [8, 11]"] ;
1069 -> 1070 ;
1071 [label="hostname_2length_ratio <= 0.7\ngini = 0.3\nsamples = 7\nvalue = [7, 2]"] ;
1070 -> 1071 ;
1072 [label="gini = 0.0\nsamples = 2\nvalue = [0, 2]"] ;
1071 -> 1072 ;
1073 [label="gini = 0.0\nsamples = 5\nvalue = [7, 0]"] ;
1071 -> 1073 ;
1074 [label="hostname_2length_ratio <= 1.5\ngini = 0.2\nsamples = 7\nvalue = [1, 9]"] ;
1070 -> 1074 ;
1075 [label="gini = 0.0\nsamples = 5\nvalue = [0, 8]"] ;
1074 -> 1075 ;
1076 [label="numLinks <= 1.0\ngini = 0.5\nsamples = 2\nvalue = [1, 1]"] ;
1074 -> 1076 ;
1077 [label="gini = 0.0\nsamples = 1\nvalue = [0, 1]"] ;
1076 -> 1077 ;
1078 [label="gini = 0.0\nsamples = 1\nvalue = [1, 0]"] ;
1076 -> 1078 ;
1079 [label="specialCharacters <= -0.2\ngini = 0.2\nsamples = 17\nvalue = [28, 4]"] ;
1069 -> 1079 ;
1080 [label="gini = 0.0\nsamples = 5\nvalue = [12, 0]"] ;
1079 -> 1080 ;
1081 [label="host_length <= -0.1\ngini = 0.3\nsamples = 12\nvalue = [16, 4]"] ;
1079 -> 1081 ;
1082 [label="gini = 0.0\nsamples = 2\nvalue = [0, 3]"] ;
1081 -> 1082 ;
1083 [label="hostname_2length_ratio <= -0.0\ngini = 0.1\nsamples = 10\nvalue = [16, 1]"] ;
1081 -> 1083 ;
1084 [label="hostname_2length_ratio <= -0.3\ngini = 0.2\nsamples = 4\nvalue = [7, 1]"] ;
1083 -> 1084 ;
1085 [label="gini = 0.0\nsamples = 3\nvalue = [7, 0]"] ;
1084 -> 1085 ;
1086 [label="gini = 0.0\nsamples = 1\nvalue = [0, 1]"] ;
1084 -> 1086 ;
1087 [label="gini = 0.0\nsamples = 6\nvalue = [9, 0]"] ;
1083 -> 1087 ;
1088 [label="gini = 0.0\nsamples = 16\nvalue = [31, 0]"] ;
1068 -> 1088 ;
1089 [label="num_digits <= 4.6\ngini = 0.0\nsamples = 1484\nvalue = [2346, 22]"] ;
1013 -> 1089 ;
1090 [label="open_page_rank <= 0.8\ngini = 0.0\nsamples = 1483\nvalue = [2346, 20]"] ;
1089 -> 1090 ;
1091 [label="num_redirects <= 4.5\ngini = 0.0\nsamples = 711\nvalue = [1101, 16]"] ;
1090 -> 1091 ;
1092 [label="hostname_2length_ratio <= 0.2\ngini = 0.0\nsamples = 709\nvalue = [1099, 15]"] ;
1091 -> 1092 ;
1093 [label="specialCharacters <= 1.1\ngini = 0.1\nsamples = 256\nvalue = [397, 14]"] ;
1092 -> 1093 ;
1094 [label="url_entropy <= -1.2\ngini = 0.0\nsamples = 225\nvalue = [353, 7]"] ;
1093 -> 1094 ;
1095 [label="months_since_creation <= -0.2\ngini = 0.3\nsamples = 18\nvalue = [21, 4]"] ;
1094 -> 1095 ;
1096 [label="specialCharacters <= -0.1\ngini = 0.4\nsamples = 8\nvalue = [8, 4]"] ;
1095 -> 1096 ;
1097 [label="url_length <= -0.7\ngini = 0.3\nsamples = 4\nvalue = [1, 4]"] ;
1096 -> 1097 ;
1098 [label="gini = 0.0\nsamples = 1\nvalue = [1, 0]"] ;
1097 -> 1098 ;
1099 [label="gini = 0.0\nsamples = 3\nvalue = [0, 4]"] ;
1097 -> 1099 ;
1100 [label="gini = 0.0\nsamples = 4\nvalue = [7, 0]"] ;
1096 -> 1100 ;
1101 [label="gini = 0.0\nsamples = 10\nvalue = [13, 0]"] ;
1095 -> 1101 ;
1102 [label="body_length <= -0.3\ngini = 0.0\nsamples = 207\nvalue = [332, 3]"] ;
1094 -> 1102 ;
1103 [label="num_- <= -0.2\ngini = 0.4\nsamples = 3\nvalue = [2, 1]"] ;
1102 -> 1103 ;
1104 [label="gini = 0.0\nsamples = 1\nvalue = [0, 1]"] ;
1103 -> 1104 ;
1105 [label="gini = 0.0\nsamples = 2\nvalue = [2, 0]"] ;
1103 -> 1105 ;
1106 [label="num_. <= 0.7\ngini = 0.0\nsamples = 204\nvalue = [330, 2]"] ;
1102 -> 1106 ;
1107 [label="num_digits <= -0.5\ngini = 0.0\nsamples = 199\nvalue = [325, 1]"] ;
1106 -> 1107 ;
1108 [label="specialCharacters <= 0.3\ngini = 0.2\nsamples = 6\nvalue = [7, 1]"] ;
1107 -> 1108 ;
1109 [label="gini = 0.0\nsamples = 5\nvalue = [7, 0]"] ;
1108 -> 1109 ;
1110 [label="gini = 0.0\nsamples = 1\nvalue = [0, 1]"] ;
1108 -> 1110 ;
1111 [label="gini = 0.0\nsamples = 193\nvalue = [318, 0]"] ;
1107 -> 1111 ;
1112 [label="host_length <= -0.1\ngini = 0.3\nsamples = 5\nvalue = [5, 1]"] ;
1106 -> 1112 ;
1113 [label="gini = 0.0\nsamples = 4\nvalue = [5, 0]"] ;
1112 -> 1113 ;
1114 [label="gini = 0.0\nsamples = 1\nvalue = [0, 1]"] ;
1112 -> 1114 ;
1115 [label="months_since_creation <= -0.0\ngini = 0.2\nsamples = 31\nvalue = [44, 7]"] ;
1093 -> 1115 ;
1116 [label="open_page_rank <= 0.4\ngini = 0.5\nsamples = 8\nvalue = [8, 7]"] ;
1115 -> 1116 ;
1117 [label="script_length <= 0.0\ngini = 0.2\nsamples = 5\nvalue = [8, 1]"] ;
1116 -> 1117 ;
1118 [label="gini = 0.0\nsamples = 1\nvalue = [0, 1]"] ;
1117 -> 1118 ;
1119 [label="gini = 0.0\nsamples = 4\nvalue = [8, 0]"] ;
1117 -> 1119 ;
1120 [label="gini = 0.0\nsamples = 3\nvalue = [0, 6]"] ;
1116 -> 1120 ;
1121 [label="gini = 0.0\nsamples = 23\nvalue = [36, 0]"] ;
1115 -> 1121 ;
1122 [label="num_ <= 0.2\ngini = 0.0\nsamples = 453\nvalue = [702, 1]"] ;
1092 -> 1122 ;
1123 [label="numLinks <= 0.1\ngini = 0.0\nsamples = 450\nvalue = [698, 1]"] ;
1122 -> 1123 ;
1124 [label="numLinks <= 0.1\ngini = 0.0\nsamples = 120\nvalue = [192, 1]"] ;
1123 -> 1124 ;
1125 [label="gini = 0.0\nsamples = 118\nvalue = [191, 0]"] ;
1124 -> 1125 ;
1126 [label="url_entropy <= -0.1\ngini = 0.5\nsamples = 2\nvalue = [1, 1]"] ;
1124 -> 1126 ;
1127 [label="gini = 0.0\nsamples = 1\nvalue = [1, 0]"] ;
1126 -> 1127 ;
1128 [label="gini = 0.0\nsamples = 1\nvalue = [0, 1]"] ;
1126 -> 1128 ;
1129 [label="gini = 0.0\nsamples = 330\nvalue = [506, 0]"] ;
1123 -> 1129 ;
1130 [label="gini = 0.0\nsamples = 3\nvalue = [4, 0]"] ;
1122 -> 1130 ;
1131 [label="scriptBodyRatio <= -0.1\ngini = 0.4\nsamples = 2\nvalue = [2, 1]"] ;
1091 -> 1131 ;
1132 [label="gini = 0.0\nsamples = 1\nvalue = [2, 0]"] ;
1131 -> 1132 ;
1133 [label="gini = 0.0\nsamples = 1\nvalue = [0, 1]"] ;
1131 -> 1133 ;
1134 [label="months_since_creation <= -0.4\ngini = 0.0\nsamples = 772\nvalue = [1245, 4]"] ;
1090 -> 1134 ;
1135 [label="script_length <= 0.5\ngini = 0.1\nsamples = 40\nvalue = [61, 4]"] ;
1134 -> 1135 ;
1136 [label="gini = 0.0\nsamples = 35\nvalue = [51, 0]"] ;
1135 -> 1136 ;
1137 [label="script_length <= 1.0\ngini = 0.4\nsamples = 5\nvalue = [10, 4]"] ;
1135 -> 1137 ;
1138 [label="gini = 0.0\nsamples = 1\nvalue = [0, 4]"] ;
1137 -> 1138 ;
1139 [label="gini = 0.0\nsamples = 4\nvalue = [10, 0]"] ;
1137 -> 1139 ;
1140 [label="gini = 0.0\nsamples = 732\nvalue = [1184, 0]"] ;
1134 -> 1140 ;
1141 [label="gini = 0.0\nsamples = 1\nvalue = [0, 2]"] ;
1089 -> 1141 ;
1142 [label="script_length <= 0.1\ngini = 0.2\nsamples = 155\nvalue = [221, 32]"] ;
950 -> 1142 ;
1143 [label="num_/ <= 0.1\ngini = 0.3\nsamples = 127\nvalue = [171, 32]"] ;
1142 -> 1143 ;
1144 [label="num_www <= 0.1\ngini = 0.2\nsamples = 96\nvalue = [134, 14]"] ;
1143 -> 1144 ;
1145 [label="body_length <= -0.1\ngini = 0.2\nsamples = 42\nvalue = [57, 8]"] ;
1144 -> 1145 ;
1146 [label="url_entropy <= 1.0\ngini = 0.5\nsamples = 9\nvalue = [7, 7]"] ;
1145 -> 1146 ;
1147 [label="num_ <= 0.6\ngini = 0.3\nsamples = 4\nvalue = [5, 1]"] ;
1146 -> 1147 ;
1148 [label="numLinks <= -0.1\ngini = 0.4\nsamples = 2\nvalue = [2, 1]"] ;
1147 -> 1148 ;
1149 [label="gini = 0.0\nsamples = 1\nvalue = [0, 1]"] ;
1148 -> 1149 ;
1150 [label="gini = 0.0\nsamples = 1\nvalue = [2, 0]"] ;
1148 -> 1150 ;
1151 [label="gini = 0.0\nsamples = 2\nvalue = [3, 0]"] ;
1147 -> 1151 ;
1152 [label="host_length <= 0.7\ngini = 0.4\nsamples = 5\nvalue = [2, 6]"] ;
1146 -> 1152 ;
1153 [label="gini = 0.0\nsamples = 2\nvalue = [0, 5]"] ;
1152 -> 1153 ;
1154 [label="host_length <= 0.9\ngini = 0.4\nsamples = 3\nvalue = [2, 1]"] ;
1152 -> 1154 ;
1155 [label="gini = 0.0\nsamples = 2\nvalue = [2, 0]"] ;
1154 -> 1155 ;
1156 [label="gini = 0.0\nsamples = 1\nvalue = [0, 1]"] ;
1154 -> 1156 ;
1157 [label="specialCharacters <= -0.3\ngini = 0.0\nsamples = 33\nvalue = [50, 1]"] ;
1145 -> 1157 ;
1158 [label="gini = 0.0\nsamples = 1\nvalue = [0, 1]"] ;
1157 -> 1158 ;
1159 [label="gini = 0.0\nsamples = 32\nvalue = [50, 0]"] ;
1157 -> 1159 ;
1160 [label="url_length_sus <= 0.7\ngini = 0.1\nsamples = 54\nvalue = [77, 6]"] ;
1144 -> 1160 ;
1161 [label="open_page_rank <= -0.8\ngini = 0.2\nsamples = 46\nvalue = [65, 6]"] ;
1160 -> 1161 ;
1162 [label="num_com <= -0.4\ngini = 0.3\nsamples = 4\nvalue = [1, 5]"] ;
1161 -> 1162 ;
1163 [label="gini = 0.0\nsamples = 3\nvalue = [0, 5]"] ;
1162 -> 1163 ;
1164 [label="gini = 0.0\nsamples = 1\nvalue = [1, 0]"] ;
1162 -> 1164 ;
1165 [label="body_length <= -0.2\ngini = 0.0\nsamples = 42\nvalue = [64, 1]"] ;
1161 -> 1165 ;
1166 [label="host_length <= -0.0\ngini = 0.5\nsamples = 2\nvalue = [1, 1]"] ;
1165 -> 1166 ;
1167 [label="gini = 0.0\nsamples = 1\nvalue = [1, 0]"] ;
1166 -> 1167 ;
1168 [label="gini = 0.0\nsamples = 1\nvalue = [0, 1]"] ;
1166 -> 1168 ;
1169 [label="gini = 0.0\nsamples = 40\nvalue = [63, 0]"] ;
1165 -> 1169 ;
1170 [label="gini = 0.0\nsamples = 8\nvalue = [12, 0]"] ;
1160 -> 1170 ;
1171 [label="url_entropy <= 0.9\ngini = 0.4\nsamples = 31\nvalue = [37, 18]"] ;
1143 -> 1171 ;
1172 [label="specialCharacters <= -0.1\ngini = 0.5\nsamples = 14\nvalue = [13, 16]"] ;
1171 -> 1172 ;
1173 [label="body_length <= 0.9\ngini = 0.3\nsamples = 9\nvalue = [13, 3]"] ;
1172 -> 1173 ;
1174 [label="gini = 0.0\nsamples = 8\nvalue = [13, 0]"] ;
1173 -> 1174 ;
1175 [label="gini = 0.0\nsamples = 1\nvalue = [0, 3]"] ;
1173 -> 1175 ;
1176 [label="gini = 0.0\nsamples = 5\nvalue = [0, 13]"] ;
1172 -> 1176 ;
1177 [label="script_length <= 0.1\ngini = 0.1\nsamples = 17\nvalue = [24, 2]"] ;
1171 -> 1177 ;
1178 [label="tld_in_path <= 0.9\ngini = 0.1\nsamples = 15\nvalue = [22, 1]"] ;
1177 -> 1178 ;
1179 [label="gini = 0.0\nsamples = 12\nvalue = [19, 0]"] ;
1178 -> 1179 ;
1180 [label="url_length <= 0.3\ngini = 0.4\nsamples = 3\nvalue = [3, 1]"] ;
1178 -> 1180 ;
1181 [label="gini = 0.0\nsamples = 1\nvalue = [0, 1]"] ;
1180 -> 1181 ;
1182 [label="gini = 0.0\nsamples = 2\nvalue = [3, 0]"] ;
1180 -> 1182 ;
1183 [label="open_page_rank <= 0.0\ngini = 0.4\nsamples = 2\nvalue = [2, 1]"] ;
1177 -> 1183 ;
1184 [label="gini = 0.0\nsamples = 1\nvalue = [0, 1]"] ;
1183 -> 1184 ;
1185 [label="gini = 0.0\nsamples = 1\nvalue = [2, 0]"] ;
1183 -> 1185 ;
1186 [label="gini = 0.0\nsamples = 28\nvalue = [50, 0]"] ;
1142 -> 1186 ;
1187 [label="open_page_rank <= 0.4\ngini = 0.5\nsamples = 46\nvalue = [30, 39]"] ;
949 -> 1187 ;
1188 [label="specialCharacters <= -0.2\ngini = 0.1\nsamples = 27\nvalue = [1, 36]"] ;
1187 -> 1188 ;
1189 [label="gini = 0.0\nsamples = 16\nvalue = [0, 25]"] ;
1188 -> 1189 ;
1190 [label="num_/ <= -0.4\ngini = 0.2\nsamples = 11\nvalue = [1, 11]"] ;
1188 -> 1190 ;
1191 [label="gini = 0.0\nsamples = 1\nvalue = [1, 0]"] ;
1190 -> 1191 ;
1192 [label="gini = 0.0\nsamples = 10\nvalue = [0, 11]"] ;
1190 -> 1192 ;
1193 [label="body_length <= 1.2\ngini = 0.2\nsamples = 19\nvalue = [29, 3]"] ;
1187 -> 1193 ;
1194 [label="gini = 0.0\nsamples = 15\nvalue = [28, 0]"] ;
1193 -> 1194 ;
1195 [label="scriptBodyRatio <= -0.1\ngini = 0.4\nsamples = 4\nvalue = [1, 3]"] ;
1193 -> 1195 ;
1196 [label="gini = 0.0\nsamples = 1\nvalue = [1, 0]"] ;
1195 -> 1196 ;
1197 [label="gini = 0.0\nsamples = 3\nvalue = [0, 3]"] ;
1195 -> 1197 ;
1198 [label="is_https <= 0.2\ngini = 0.0\nsamples = 30\nvalue = [1, 39]"] ;
948 -> 1198 ;
1199 [label="gini = 0.0\nsamples = 27\nvalue = [0, 36]"] ;
1198 -> 1199 ;
1200 [label="num_/ <= 1.2\ngini = 0.4\nsamples = 3\nvalue = [1, 3]"] ;
1198 -> 1200 ;
1201 [label="gini = 0.0\nsamples = 1\nvalue = [1, 0]"] ;
1200 -> 1201 ;
1202 [label="gini = 0.0\nsamples = 2\nvalue = [0, 3]"] ;
1200 -> 1202 ;
1203 [label="scriptBodyRatio <= -0.1\ngini = 0.5\nsamples = 245\nvalue = [168, 236]"] ;
581 -> 1203 ;
1204 [label="script_length <= -0.2\ngini = 0.4\nsamples = 135\nvalue = [156, 65]"] ;
1203 -> 1204 ;
1205 [label="script_length <= -0.2\ngini = 0.5\nsamples = 58\nvalue = [36, 59]"] ;
1204 -> 1205 ;
1206 [label="scriptBodyRatio <= -0.1\ngini = 0.5\nsamples = 46\nvalue = [36, 41]"] ;
1205 -> 1206 ;
1207 [label="specialCharacters <= -0.3\ngini = 0.4\nsamples = 26\nvalue = [35, 13]"] ;
1206 -> 1207 ;
1208 [label="gini = 0.0\nsamples = 1\nvalue = [0, 3]"] ;
1207 -> 1208 ;
1209 [label="num_- <= -0.2\ngini = 0.3\nsamples = 25\nvalue = [35, 10]"] ;
1207 -> 1209 ;
1210 [label="url_length <= -0.4\ngini = 0.1\nsamples = 17\nvalue = [32, 2]"] ;
1209 -> 1210 ;
1211 [label="gini = 0.0\nsamples = 16\nvalue = [32, 0]"] ;
1210 -> 1211 ;
1212 [label="gini = 0.0\nsamples = 1\nvalue = [0, 2]"] ;
1210 -> 1212 ;
1213 [label="open_page_rank <= -0.6\ngini = 0.4\nsamples = 8\nvalue = [3, 8]"] ;
1209 -> 1213 ;
1214 [label="gini = 0.0\nsamples = 5\nvalue = [0, 8]"] ;
1213 -> 1214 ;
1215 [label="gini = 0.0\nsamples = 3\nvalue = [3, 0]"] ;
1213 -> 1215 ;
1216 [label="host_length <= 0.5\ngini = 0.1\nsamples = 20\nvalue = [1, 28]"] ;
1206 -> 1216 ;
1217 [label="gini = 0.0\nsamples = 1\nvalue = [1, 0]"] ;
1216 -> 1217 ;
1218 [label="gini = 0.0\nsamples = 19\nvalue = [0, 28]"] ;
1216 -> 1218 ;
1219 [label="gini = 0.0\nsamples = 12\nvalue = [0, 18]"] ;
1205 -> 1219 ;
1220 [label="hostname_2length_ratio <= 1.9\ngini = 0.1\nsamples = 77\nvalue = [120, 6]"] ;
1204 -> 1220 ;
1221 [label="numImages <= -0.1\ngini = 0.0\nsamples = 75\nvalue = [120, 2]"] ;
1220 -> 1221 ;
1222 [label="num_redirects <= 1.6\ngini = 0.1\nsamples = 20\nvalue = [35, 2]"] ;
1221 -> 1222 ;
1223 [label="scriptBodyRatio <= -0.1\ngini = 0.1\nsamples = 19\nvalue = [35, 1]"] ;
1222 -> 1223 ;
1224 [label="gini = 0.0\nsamples = 18\nvalue = [35, 0]"] ;
1223 -> 1224 ;
1225 [label="gini = 0.0\nsamples = 1\nvalue = [0, 1]"] ;
1223 -> 1225 ;
1226 [label="gini = 0.0\nsamples = 1\nvalue = [0, 1]"] ;
1222 -> 1226 ;
1227 [label="gini = 0.0\nsamples = 55\nvalue = [85, 0]"] ;
1221 -> 1227 ;
